=== Run information ===

Scheme:       weka.classifiers.misc.InputMappedClassifier -I -trim -W weka.classifiers.trees.RandomTree -- -K 0 -M 1.0 -V 0.001 -S 1
Relation:     XY_train_full-weka.filters.unsupervised.attribute.Remove-V-R4,12,17,11,8,6,14,5,7,16,13,3,15,2,9,18
Instances:    12250
Attributes:   16
              membership_category
              points_in_wallet
              feedback
              avg_transaction_value
              internet_option
              preferred_offer_types
              offer_application_preference
              joined_through_referral
              medium_of_operation
              complaint_status
              used_special_discount
              region_category
              past_complaint
              gender
              days_since_last_login
              churn_risk_score
Test mode:    user supplied test set:  size unknown (reading incrementally)

=== Classifier model (full training set) ===

InputMappedClassifier:


RandomTree
==========

points_in_wallet < 700.06
|   points_in_wallet < 499.64
|   |   points_in_wallet < 386.29
|   |   |   avg_transaction_value < 50414.47
|   |   |   |   avg_transaction_value < 6871.6
|   |   |   |   |   feedback = Poor Website
|   |   |   |   |   |   region_category = City : 1 (1/0)
|   |   |   |   |   |   region_category = Village : 1 (1/0)
|   |   |   |   |   |   region_category = Town
|   |   |   |   |   |   |   membership_category = No Membership : 1 (1/0)
|   |   |   |   |   |   |   membership_category = Platinum Membership : 0 (2/0)
|   |   |   |   |   |   |   membership_category = Premium Membership : 0 (0/0)
|   |   |   |   |   |   |   membership_category = Basic Membership : 1 (1/0)
|   |   |   |   |   |   |   membership_category = Silver Membership : 0 (0/0)
|   |   |   |   |   |   |   membership_category = Gold Membership : 1 (1/0)
|   |   |   |   |   feedback = Too many ads
|   |   |   |   |   |   past_complaint = No
|   |   |   |   |   |   |   used_special_discount = Yes
|   |   |   |   |   |   |   |   membership_category = No Membership : 0 (0/0)
|   |   |   |   |   |   |   |   membership_category = Platinum Membership : 0 (0/0)
|   |   |   |   |   |   |   |   membership_category = Premium Membership : 0 (0/0)
|   |   |   |   |   |   |   |   membership_category = Basic Membership : 1 (1/0)
|   |   |   |   |   |   |   |   membership_category = Silver Membership
|   |   |   |   |   |   |   |   |   points_in_wallet < 339.47 : 0 (1/0)
|   |   |   |   |   |   |   |   |   points_in_wallet >= 339.47 : 1 (1/0)
|   |   |   |   |   |   |   |   membership_category = Gold Membership : 0 (1/0)
|   |   |   |   |   |   |   used_special_discount = No : 1 (2/0)
|   |   |   |   |   |   past_complaint = Yes : 1 (7/0)
|   |   |   |   |   feedback = Quality Customer Care : 0 (3/0)
|   |   |   |   |   feedback = Poor Customer Service
|   |   |   |   |   |   past_complaint = No
|   |   |   |   |   |   |   membership_category = No Membership
|   |   |   |   |   |   |   |   points_in_wallet < 300.82 : 1 (2/0)
|   |   |   |   |   |   |   |   points_in_wallet >= 300.82 : 0 (1/0)
|   |   |   |   |   |   |   membership_category = Platinum Membership : 0 (1/0)
|   |   |   |   |   |   |   membership_category = Premium Membership : 0 (0/0)
|   |   |   |   |   |   |   membership_category = Basic Membership : 1 (2/0)
|   |   |   |   |   |   |   membership_category = Silver Membership : 1 (1/0)
|   |   |   |   |   |   |   membership_category = Gold Membership : 0 (0/0)
|   |   |   |   |   |   past_complaint = Yes
|   |   |   |   |   |   |   complaint_status = Not Applicable : 0 (0/0)
|   |   |   |   |   |   |   complaint_status = Unsolved : 0 (1/0)
|   |   |   |   |   |   |   complaint_status = Solved
|   |   |   |   |   |   |   |   points_in_wallet < 194.22 : 0 (1/0)
|   |   |   |   |   |   |   |   points_in_wallet >= 194.22 : 1 (2/0)
|   |   |   |   |   |   |   complaint_status = Solved in Follow-up : 1 (1/0)
|   |   |   |   |   |   |   complaint_status = No Information Available : 0 (3/0)
|   |   |   |   |   feedback = No reason specified
|   |   |   |   |   |   points_in_wallet < 194.73 : 1 (5/0)
|   |   |   |   |   |   points_in_wallet >= 194.73
|   |   |   |   |   |   |   avg_transaction_value < 1881.93 : 1 (3/0)
|   |   |   |   |   |   |   avg_transaction_value >= 1881.93
|   |   |   |   |   |   |   |   avg_transaction_value < 4052.26 : 0 (4/0)
|   |   |   |   |   |   |   |   avg_transaction_value >= 4052.26
|   |   |   |   |   |   |   |   |   preferred_offer_types = Gift Vouchers/Coupons : 1 (1/0)
|   |   |   |   |   |   |   |   |   preferred_offer_types = Without Offers : 1 (1/0)
|   |   |   |   |   |   |   |   |   preferred_offer_types = Credit/Debit Card Offers
|   |   |   |   |   |   |   |   |   |   avg_transaction_value < 5575.7 : 1 (1/0)
|   |   |   |   |   |   |   |   |   |   avg_transaction_value >= 5575.7 : 0 (2/0)
|   |   |   |   |   feedback = User Friendly Website : 0 (1/0)
|   |   |   |   |   feedback = Poor Product Quality
|   |   |   |   |   |   membership_category = No Membership : 1 (6/0)
|   |   |   |   |   |   membership_category = Platinum Membership : 0 (5/0)
|   |   |   |   |   |   membership_category = Premium Membership : 0 (2/0)
|   |   |   |   |   |   membership_category = Basic Membership : 1 (3/0)
|   |   |   |   |   |   membership_category = Silver Membership
|   |   |   |   |   |   |   avg_transaction_value < 5974.98 : 0 (1/0)
|   |   |   |   |   |   |   avg_transaction_value >= 5974.98 : 1 (1/0)
|   |   |   |   |   |   membership_category = Gold Membership
|   |   |   |   |   |   |   points_in_wallet < 221.43 : 1 (2/0)
|   |   |   |   |   |   |   points_in_wallet >= 221.43 : 0 (2/0)
|   |   |   |   |   feedback = Products always in Stock : 0 (2/0)
|   |   |   |   |   feedback = Reasonable Price : 0 (1/0)
|   |   |   |   avg_transaction_value >= 6871.6
|   |   |   |   |   points_in_wallet < 126.28
|   |   |   |   |   |   internet_option = Wi-Fi : 1 (22/0)
|   |   |   |   |   |   internet_option = Mobile_Data : 1 (31/0)
|   |   |   |   |   |   internet_option = Fiber_Optic
|   |   |   |   |   |   |   days_since_last_login < 18 : 1 (17/0)
|   |   |   |   |   |   |   days_since_last_login >= 18
|   |   |   |   |   |   |   |   complaint_status = Not Applicable : 1 (2/0)
|   |   |   |   |   |   |   |   complaint_status = Unsolved : 1 (1/0)
|   |   |   |   |   |   |   |   complaint_status = Solved : 0 (1/0)
|   |   |   |   |   |   |   |   complaint_status = Solved in Follow-up : 0 (0/0)
|   |   |   |   |   |   |   |   complaint_status = No Information Available : 0 (0/0)
|   |   |   |   |   points_in_wallet >= 126.28
|   |   |   |   |   |   internet_option = Wi-Fi
|   |   |   |   |   |   |   days_since_last_login < 18.5
|   |   |   |   |   |   |   |   points_in_wallet < 176
|   |   |   |   |   |   |   |   |   membership_category = No Membership : 1 (6/0)
|   |   |   |   |   |   |   |   |   membership_category = Platinum Membership : 0 (1/0)
|   |   |   |   |   |   |   |   |   membership_category = Premium Membership : 0 (0/0)
|   |   |   |   |   |   |   |   |   membership_category = Basic Membership
|   |   |   |   |   |   |   |   |   |   joined_through_referral = No : 1 (4/0)
|   |   |   |   |   |   |   |   |   |   joined_through_referral = Yes
|   |   |   |   |   |   |   |   |   |   |   feedback = Poor Website : 0 (0/0)
|   |   |   |   |   |   |   |   |   |   |   feedback = Too many ads : 0 (0/0)
|   |   |   |   |   |   |   |   |   |   |   feedback = Quality Customer Care : 0 (0/0)
|   |   |   |   |   |   |   |   |   |   |   feedback = Poor Customer Service : 0 (1/0)
|   |   |   |   |   |   |   |   |   |   |   feedback = No reason specified : 0 (0/0)
|   |   |   |   |   |   |   |   |   |   |   feedback = User Friendly Website : 0 (0/0)
|   |   |   |   |   |   |   |   |   |   |   feedback = Poor Product Quality : 1 (1/0)
|   |   |   |   |   |   |   |   |   |   |   feedback = Products always in Stock : 0 (0/0)
|   |   |   |   |   |   |   |   |   |   |   feedback = Reasonable Price : 0 (0/0)
|   |   |   |   |   |   |   |   |   membership_category = Silver Membership : 1 (2/0)
|   |   |   |   |   |   |   |   |   membership_category = Gold Membership : 1 (3/0)
|   |   |   |   |   |   |   |   points_in_wallet >= 176
|   |   |   |   |   |   |   |   |   feedback = Poor Website
|   |   |   |   |   |   |   |   |   |   used_special_discount = Yes
|   |   |   |   |   |   |   |   |   |   |   avg_transaction_value < 17549.02 : 0 (2/0)
|   |   |   |   |   |   |   |   |   |   |   avg_transaction_value >= 17549.02
|   |   |   |   |   |   |   |   |   |   |   |   preferred_offer_types = Gift Vouchers/Coupons : 1 (3/0)
|   |   |   |   |   |   |   |   |   |   |   |   preferred_offer_types = Without Offers
|   |   |   |   |   |   |   |   |   |   |   |   |   avg_transaction_value < 30968.56 : 0 (1/0)
|   |   |   |   |   |   |   |   |   |   |   |   |   avg_transaction_value >= 30968.56
|   |   |   |   |   |   |   |   |   |   |   |   |   |   membership_category = No Membership : 1 (1/0)
|   |   |   |   |   |   |   |   |   |   |   |   |   |   membership_category = Platinum Membership : 0 (0/0)
|   |   |   |   |   |   |   |   |   |   |   |   |   |   membership_category = Premium Membership : 0 (0/0)
|   |   |   |   |   |   |   |   |   |   |   |   |   |   membership_category = Basic Membership : 1 (1/0)
|   |   |   |   |   |   |   |   |   |   |   |   |   |   membership_category = Silver Membership : 0 (1/0)
|   |   |   |   |   |   |   |   |   |   |   |   |   |   membership_category = Gold Membership : 1 (1/0)
|   |   |   |   |   |   |   |   |   |   |   |   preferred_offer_types = Credit/Debit Card Offers : 1 (2/0)
|   |   |   |   |   |   |   |   |   |   used_special_discount = No
|   |   |   |   |   |   |   |   |   |   |   days_since_last_login < 10.5
|   |   |   |   |   |   |   |   |   |   |   |   avg_transaction_value < 37171.86 : 1 (5/0)
|   |   |   |   |   |   |   |   |   |   |   |   avg_transaction_value >= 37171.86 : 0 (1/0)
|   |   |   |   |   |   |   |   |   |   |   days_since_last_login >= 10.5 : 1 (10/0)
|   |   |   |   |   |   |   |   |   feedback = Too many ads
|   |   |   |   |   |   |   |   |   |   membership_category = No Membership : 1 (6/0)
|   |   |   |   |   |   |   |   |   |   membership_category = Platinum Membership : 0 (0/0)
|   |   |   |   |   |   |   |   |   |   membership_category = Premium Membership : 0 (2/0)
|   |   |   |   |   |   |   |   |   |   membership_category = Basic Membership : 1 (3/0)
|   |   |   |   |   |   |   |   |   |   membership_category = Silver Membership
|   |   |   |   |   |   |   |   |   |   |   avg_transaction_value < 22757.19 : 1 (1/0)
|   |   |   |   |   |   |   |   |   |   |   avg_transaction_value >= 22757.19 : 0 (2/0)
|   |   |   |   |   |   |   |   |   |   membership_category = Gold Membership : 1 (2/0)
|   |   |   |   |   |   |   |   |   feedback = Quality Customer Care : 0 (2/0)
|   |   |   |   |   |   |   |   |   feedback = Poor Customer Service
|   |   |   |   |   |   |   |   |   |   preferred_offer_types = Gift Vouchers/Coupons
|   |   |   |   |   |   |   |   |   |   |   gender = M
|   |   |   |   |   |   |   |   |   |   |   |   days_since_last_login < 12.5 : 1 (3/0)
|   |   |   |   |   |   |   |   |   |   |   |   days_since_last_login >= 12.5
|   |   |   |   |   |   |   |   |   |   |   |   |   points_in_wallet < 298.45 : 0 (1/0)
|   |   |   |   |   |   |   |   |   |   |   |   |   points_in_wallet >= 298.45 : 1 (1/0)
|   |   |   |   |   |   |   |   |   |   |   gender = F
|   |   |   |   |   |   |   |   |   |   |   |   membership_category = No Membership : 1 (1/0)
|   |   |   |   |   |   |   |   |   |   |   |   membership_category = Platinum Membership : 0 (1/0)
|   |   |   |   |   |   |   |   |   |   |   |   membership_category = Premium Membership : 0 (0/0)
|   |   |   |   |   |   |   |   |   |   |   |   membership_category = Basic Membership : 1 (1/0)
|   |   |   |   |   |   |   |   |   |   |   |   membership_category = Silver Membership : 0 (0/0)
|   |   |   |   |   |   |   |   |   |   |   |   membership_category = Gold Membership
|   |   |   |   |   |   |   |   |   |   |   |   |   offer_application_preference = No
|   |   |   |   |   |   |   |   |   |   |   |   |   |   days_since_last_login < 13.5 : 0 (1/0)
|   |   |   |   |   |   |   |   |   |   |   |   |   |   days_since_last_login >= 13.5 : 1 (1/0)
|   |   |   |   |   |   |   |   |   |   |   |   |   offer_application_preference = Yes : 0 (1/0)
|   |   |   |   |   |   |   |   |   |   preferred_offer_types = Without Offers
|   |   |   |   |   |   |   |   |   |   |   complaint_status = Not Applicable : 1 (3/0)
|   |   |   |   |   |   |   |   |   |   |   complaint_status = Unsolved : 1 (1/0)
|   |   |   |   |   |   |   |   |   |   |   complaint_status = Solved
|   |   |   |   |   |   |   |   |   |   |   |   avg_transaction_value < 26495.87 : 1 (1/0)
|   |   |   |   |   |   |   |   |   |   |   |   avg_transaction_value >= 26495.87 : 0 (1/0)
|   |   |   |   |   |   |   |   |   |   |   complaint_status = Solved in Follow-up : 0 (1/0)
|   |   |   |   |   |   |   |   |   |   |   complaint_status = No Information Available : 0 (0/0)
|   |   |   |   |   |   |   |   |   |   preferred_offer_types = Credit/Debit Card Offers : 1 (9/0)
|   |   |   |   |   |   |   |   |   feedback = No reason specified
|   |   |   |   |   |   |   |   |   |   membership_category = No Membership : 1 (3/0)
|   |   |   |   |   |   |   |   |   |   membership_category = Platinum Membership : 0 (3/0)
|   |   |   |   |   |   |   |   |   |   membership_category = Premium Membership : 0 (2/0)
|   |   |   |   |   |   |   |   |   |   membership_category = Basic Membership : 1 (6/0)
|   |   |   |   |   |   |   |   |   |   membership_category = Silver Membership
|   |   |   |   |   |   |   |   |   |   |   points_in_wallet < 340.16 : 1 (1/0)
|   |   |   |   |   |   |   |   |   |   |   points_in_wallet >= 340.16 : 0 (1/0)
|   |   |   |   |   |   |   |   |   |   membership_category = Gold Membership
|   |   |   |   |   |   |   |   |   |   |   points_in_wallet < 286.24 : 0 (1/0)
|   |   |   |   |   |   |   |   |   |   |   points_in_wallet >= 286.24 : 1 (1/0)
|   |   |   |   |   |   |   |   |   feedback = User Friendly Website : 0 (3/0)
|   |   |   |   |   |   |   |   |   feedback = Poor Product Quality
|   |   |   |   |   |   |   |   |   |   complaint_status = Not Applicable
|   |   |   |   |   |   |   |   |   |   |   membership_category = No Membership : 1 (3/0)
|   |   |   |   |   |   |   |   |   |   |   membership_category = Platinum Membership : 0 (3/0)
|   |   |   |   |   |   |   |   |   |   |   membership_category = Premium Membership : 0 (5/0)
|   |   |   |   |   |   |   |   |   |   |   membership_category = Basic Membership : 1 (1/0)
|   |   |   |   |   |   |   |   |   |   |   membership_category = Silver Membership
|   |   |   |   |   |   |   |   |   |   |   |   region_category = City : 1 (1/0)
|   |   |   |   |   |   |   |   |   |   |   |   region_category = Village : 0 (0/0)
|   |   |   |   |   |   |   |   |   |   |   |   region_category = Town : 0 (1/0)
|   |   |   |   |   |   |   |   |   |   |   membership_category = Gold Membership
|   |   |   |   |   |   |   |   |   |   |   |   points_in_wallet < 303.45 : 1 (1/0)
|   |   |   |   |   |   |   |   |   |   |   |   points_in_wallet >= 303.45 : 0 (1/0)
|   |   |   |   |   |   |   |   |   |   complaint_status = Unsolved
|   |   |   |   |   |   |   |   |   |   |   points_in_wallet < 264.36 : 0 (1/0)
|   |   |   |   |   |   |   |   |   |   |   points_in_wallet >= 264.36 : 1 (1/0)
|   |   |   |   |   |   |   |   |   |   complaint_status = Solved : 1 (1/0)
|   |   |   |   |   |   |   |   |   |   complaint_status = Solved in Follow-up : 1 (1/0)
|   |   |   |   |   |   |   |   |   |   complaint_status = No Information Available : 0 (1/0)
|   |   |   |   |   |   |   |   |   feedback = Products always in Stock : 0 (3/0)
|   |   |   |   |   |   |   |   |   feedback = Reasonable Price : 0 (3/0)
|   |   |   |   |   |   |   days_since_last_login >= 18.5
|   |   |   |   |   |   |   |   region_category = City
|   |   |   |   |   |   |   |   |   preferred_offer_types = Gift Vouchers/Coupons : 0 (2/0)
|   |   |   |   |   |   |   |   |   preferred_offer_types = Without Offers : 0 (4/0)
|   |   |   |   |   |   |   |   |   preferred_offer_types = Credit/Debit Card Offers
|   |   |   |   |   |   |   |   |   |   past_complaint = No
|   |   |   |   |   |   |   |   |   |   |   feedback = Poor Website : 0 (0/0)
|   |   |   |   |   |   |   |   |   |   |   feedback = Too many ads : 0 (1/0)
|   |   |   |   |   |   |   |   |   |   |   feedback = Quality Customer Care : 0 (0/0)
|   |   |   |   |   |   |   |   |   |   |   feedback = Poor Customer Service : 1 (1/0)
|   |   |   |   |   |   |   |   |   |   |   feedback = No reason specified : 0 (1/0)
|   |   |   |   |   |   |   |   |   |   |   feedback = User Friendly Website : 0 (0/0)
|   |   |   |   |   |   |   |   |   |   |   feedback = Poor Product Quality : 0 (0/0)
|   |   |   |   |   |   |   |   |   |   |   feedback = Products always in Stock : 0 (0/0)
|   |   |   |   |   |   |   |   |   |   |   feedback = Reasonable Price : 0 (0/0)
|   |   |   |   |   |   |   |   |   |   past_complaint = Yes : 1 (1/0)
|   |   |   |   |   |   |   |   region_category = Village : 0 (2/0)
|   |   |   |   |   |   |   |   region_category = Town
|   |   |   |   |   |   |   |   |   membership_category = No Membership : 1 (3/0)
|   |   |   |   |   |   |   |   |   membership_category = Platinum Membership : 0 (0/0)
|   |   |   |   |   |   |   |   |   membership_category = Premium Membership : 0 (2/0)
|   |   |   |   |   |   |   |   |   membership_category = Basic Membership : 1 (2/0)
|   |   |   |   |   |   |   |   |   membership_category = Silver Membership : 1 (2/0)
|   |   |   |   |   |   |   |   |   membership_category = Gold Membership : 0 (1/0)
|   |   |   |   |   |   internet_option = Mobile_Data
|   |   |   |   |   |   |   feedback = Poor Website
|   |   |   |   |   |   |   |   membership_category = No Membership : 1 (10/0)
|   |   |   |   |   |   |   |   membership_category = Platinum Membership : 0 (4/0)
|   |   |   |   |   |   |   |   membership_category = Premium Membership : 0 (2/0)
|   |   |   |   |   |   |   |   membership_category = Basic Membership : 1 (10/0)
|   |   |   |   |   |   |   |   membership_category = Silver Membership
|   |   |   |   |   |   |   |   |   preferred_offer_types = Gift Vouchers/Coupons : 0 (2/0)
|   |   |   |   |   |   |   |   |   preferred_offer_types = Without Offers : 0 (0/0)
|   |   |   |   |   |   |   |   |   preferred_offer_types = Credit/Debit Card Offers : 1 (1/0)
|   |   |   |   |   |   |   |   membership_category = Gold Membership
|   |   |   |   |   |   |   |   |   avg_transaction_value < 43412.45 : 0 (2/0)
|   |   |   |   |   |   |   |   |   avg_transaction_value >= 43412.45
|   |   |   |   |   |   |   |   |   |   avg_transaction_value < 44692.71 : 1 (1/0)
|   |   |   |   |   |   |   |   |   |   avg_transaction_value >= 44692.71 : 0 (1/0)
|   |   |   |   |   |   |   feedback = Too many ads
|   |   |   |   |   |   |   |   membership_category = No Membership : 1 (10/0)
|   |   |   |   |   |   |   |   membership_category = Platinum Membership : 0 (2/0)
|   |   |   |   |   |   |   |   membership_category = Premium Membership : 0 (2/0)
|   |   |   |   |   |   |   |   membership_category = Basic Membership : 1 (10/0)
|   |   |   |   |   |   |   |   membership_category = Silver Membership : 1 (1/0)
|   |   |   |   |   |   |   |   membership_category = Gold Membership
|   |   |   |   |   |   |   |   |   preferred_offer_types = Gift Vouchers/Coupons : 0 (1/0)
|   |   |   |   |   |   |   |   |   preferred_offer_types = Without Offers : 0 (2/0)
|   |   |   |   |   |   |   |   |   preferred_offer_types = Credit/Debit Card Offers : 1 (3/0)
|   |   |   |   |   |   |   feedback = Quality Customer Care : 0 (3/0)
|   |   |   |   |   |   |   feedback = Poor Customer Service
|   |   |   |   |   |   |   |   complaint_status = Not Applicable
|   |   |   |   |   |   |   |   |   days_since_last_login < 13
|   |   |   |   |   |   |   |   |   |   points_in_wallet < 265.41
|   |   |   |   |   |   |   |   |   |   |   membership_category = No Membership : 1 (1/0)
|   |   |   |   |   |   |   |   |   |   |   membership_category = Platinum Membership : 0 (0/0)
|   |   |   |   |   |   |   |   |   |   |   membership_category = Premium Membership : 0 (0/0)
|   |   |   |   |   |   |   |   |   |   |   membership_category = Basic Membership : 1 (2/0)
|   |   |   |   |   |   |   |   |   |   |   membership_category = Silver Membership : 0 (0/0)
|   |   |   |   |   |   |   |   |   |   |   membership_category = Gold Membership : 0 (1/0)
|   |   |   |   |   |   |   |   |   |   points_in_wallet >= 265.41 : 1 (6/0)
|   |   |   |   |   |   |   |   |   days_since_last_login >= 13
|   |   |   |   |   |   |   |   |   |   points_in_wallet < 250.59 : 1 (5/0)
|   |   |   |   |   |   |   |   |   |   points_in_wallet >= 250.59
|   |   |   |   |   |   |   |   |   |   |   points_in_wallet < 320.63
|   |   |   |   |   |   |   |   |   |   |   |   joined_through_referral = No : 1 (1/0)
|   |   |   |   |   |   |   |   |   |   |   |   joined_through_referral = Yes : 0 (1/0)
|   |   |   |   |   |   |   |   |   |   |   points_in_wallet >= 320.63 : 0 (4/0)
|   |   |   |   |   |   |   |   complaint_status = Unsolved : 1 (5/0)
|   |   |   |   |   |   |   |   complaint_status = Solved
|   |   |   |   |   |   |   |   |   preferred_offer_types = Gift Vouchers/Coupons
|   |   |   |   |   |   |   |   |   |   gender = M : 1 (2/0)
|   |   |   |   |   |   |   |   |   |   gender = F : 0 (1/0)
|   |   |   |   |   |   |   |   |   preferred_offer_types = Without Offers : 0 (1/0)
|   |   |   |   |   |   |   |   |   preferred_offer_types = Credit/Debit Card Offers : 0 (1/0)
|   |   |   |   |   |   |   |   complaint_status = Solved in Follow-up
|   |   |   |   |   |   |   |   |   preferred_offer_types = Gift Vouchers/Coupons
|   |   |   |   |   |   |   |   |   |   days_since_last_login < 13 : 1 (4/0)
|   |   |   |   |   |   |   |   |   |   days_since_last_login >= 13 : 0 (1/0)
|   |   |   |   |   |   |   |   |   preferred_offer_types = Without Offers : 0 (1/0)
|   |   |   |   |   |   |   |   |   preferred_offer_types = Credit/Debit Card Offers : 0 (0/0)
|   |   |   |   |   |   |   |   complaint_status = No Information Available : 1 (3/0)
|   |   |   |   |   |   |   feedback = No reason specified
|   |   |   |   |   |   |   |   points_in_wallet < 216.48 : 1 (14/0)
|   |   |   |   |   |   |   |   points_in_wallet >= 216.48
|   |   |   |   |   |   |   |   |   complaint_status = Not Applicable
|   |   |   |   |   |   |   |   |   |   days_since_last_login < 13
|   |   |   |   |   |   |   |   |   |   |   medium_of_operation = Both : 1 (1/0)
|   |   |   |   |   |   |   |   |   |   |   medium_of_operation = Smartphone : 0 (4/0)
|   |   |   |   |   |   |   |   |   |   |   medium_of_operation = Desktop
|   |   |   |   |   |   |   |   |   |   |   |   preferred_offer_types = Gift Vouchers/Coupons : 1 (1/0)
|   |   |   |   |   |   |   |   |   |   |   |   preferred_offer_types = Without Offers : 1 (1/0)
|   |   |   |   |   |   |   |   |   |   |   |   preferred_offer_types = Credit/Debit Card Offers : 0 (2/0)
|   |   |   |   |   |   |   |   |   |   days_since_last_login >= 13 : 1 (6/0)
|   |   |   |   |   |   |   |   |   complaint_status = Unsolved
|   |   |   |   |   |   |   |   |   |   membership_category = No Membership : 1 (1/0)
|   |   |   |   |   |   |   |   |   |   membership_category = Platinum Membership : 0 (2/0)
|   |   |   |   |   |   |   |   |   |   membership_category = Premium Membership : 0 (1/0)
|   |   |   |   |   |   |   |   |   |   membership_category = Basic Membership : 0 (0/0)
|   |   |   |   |   |   |   |   |   |   membership_category = Silver Membership : 0 (0/0)
|   |   |   |   |   |   |   |   |   |   membership_category = Gold Membership : 1 (1/0)
|   |   |   |   |   |   |   |   |   complaint_status = Solved : 1 (1/0)
|   |   |   |   |   |   |   |   |   complaint_status = Solved in Follow-up : 1 (3/0)
|   |   |   |   |   |   |   |   |   complaint_status = No Information Available : 0 (3/0)
|   |   |   |   |   |   |   feedback = User Friendly Website : 0 (2/0)
|   |   |   |   |   |   |   feedback = Poor Product Quality
|   |   |   |   |   |   |   |   complaint_status = Not Applicable
|   |   |   |   |   |   |   |   |   preferred_offer_types = Gift Vouchers/Coupons
|   |   |   |   |   |   |   |   |   |   membership_category = No Membership : 0 (0/0)
|   |   |   |   |   |   |   |   |   |   membership_category = Platinum Membership : 0 (0/0)
|   |   |   |   |   |   |   |   |   |   membership_category = Premium Membership : 0 (2/0)
|   |   |   |   |   |   |   |   |   |   membership_category = Basic Membership : 1 (1/0)
|   |   |   |   |   |   |   |   |   |   membership_category = Silver Membership : 0 (0/0)
|   |   |   |   |   |   |   |   |   |   membership_category = Gold Membership : 0 (0/0)
|   |   |   |   |   |   |   |   |   preferred_offer_types = Without Offers
|   |   |   |   |   |   |   |   |   |   gender = M : 1 (3/0)
|   |   |   |   |   |   |   |   |   |   gender = F
|   |   |   |   |   |   |   |   |   |   |   region_category = City : 0 (1/0)
|   |   |   |   |   |   |   |   |   |   |   region_category = Village : 0 (1/0)
|   |   |   |   |   |   |   |   |   |   |   region_category = Town : 1 (1/0)
|   |   |   |   |   |   |   |   |   preferred_offer_types = Credit/Debit Card Offers : 1 (6/0)
|   |   |   |   |   |   |   |   complaint_status = Unsolved
|   |   |   |   |   |   |   |   |   membership_category = No Membership : 0 (0/0)
|   |   |   |   |   |   |   |   |   membership_category = Platinum Membership : 0 (0/0)
|   |   |   |   |   |   |   |   |   membership_category = Premium Membership : 0 (0/0)
|   |   |   |   |   |   |   |   |   membership_category = Basic Membership : 1 (2/0)
|   |   |   |   |   |   |   |   |   membership_category = Silver Membership
|   |   |   |   |   |   |   |   |   |   joined_through_referral = No : 0 (1/0)
|   |   |   |   |   |   |   |   |   |   joined_through_referral = Yes : 1 (1/0)
|   |   |   |   |   |   |   |   |   membership_category = Gold Membership : 0 (1/0)
|   |   |   |   |   |   |   |   complaint_status = Solved
|   |   |   |   |   |   |   |   |   membership_category = No Membership : 0 (0/0)
|   |   |   |   |   |   |   |   |   membership_category = Platinum Membership : 0 (1/0)
|   |   |   |   |   |   |   |   |   membership_category = Premium Membership : 0 (0/0)
|   |   |   |   |   |   |   |   |   membership_category = Basic Membership : 1 (2/0)
|   |   |   |   |   |   |   |   |   membership_category = Silver Membership : 0 (1/0)
|   |   |   |   |   |   |   |   |   membership_category = Gold Membership : 0 (0/0)
|   |   |   |   |   |   |   |   complaint_status = Solved in Follow-up : 1 (3/0)
|   |   |   |   |   |   |   |   complaint_status = No Information Available : 0 (1/0)
|   |   |   |   |   |   |   feedback = Products always in Stock : 0 (0/0)
|   |   |   |   |   |   |   feedback = Reasonable Price : 0 (5/0)
|   |   |   |   |   |   internet_option = Fiber_Optic
|   |   |   |   |   |   |   feedback = Poor Website
|   |   |   |   |   |   |   |   complaint_status = Not Applicable
|   |   |   |   |   |   |   |   |   membership_category = No Membership : 1 (7/0)
|   |   |   |   |   |   |   |   |   membership_category = Platinum Membership : 0 (1/0)
|   |   |   |   |   |   |   |   |   membership_category = Premium Membership : 0 (4/0)
|   |   |   |   |   |   |   |   |   membership_category = Basic Membership : 1 (2/0)
|   |   |   |   |   |   |   |   |   membership_category = Silver Membership : 1 (6/0)
|   |   |   |   |   |   |   |   |   membership_category = Gold Membership : 1 (1/0)
|   |   |   |   |   |   |   |   complaint_status = Unsolved
|   |   |   |   |   |   |   |   |   offer_application_preference = No
|   |   |   |   |   |   |   |   |   |   preferred_offer_types = Gift Vouchers/Coupons : 1 (3/0)
|   |   |   |   |   |   |   |   |   |   preferred_offer_types = Without Offers : 0 (0/0)
|   |   |   |   |   |   |   |   |   |   preferred_offer_types = Credit/Debit Card Offers : 0 (1/0)
|   |   |   |   |   |   |   |   |   offer_application_preference = Yes
|   |   |   |   |   |   |   |   |   |   days_since_last_login < 15.5 : 0 (2/0)
|   |   |   |   |   |   |   |   |   |   days_since_last_login >= 15.5 : 1 (1/0)
|   |   |   |   |   |   |   |   complaint_status = Solved : 1 (2/0)
|   |   |   |   |   |   |   |   complaint_status = Solved in Follow-up : 1 (3/0)
|   |   |   |   |   |   |   |   complaint_status = No Information Available
|   |   |   |   |   |   |   |   |   avg_transaction_value < 28714.22 : 1 (2/0)
|   |   |   |   |   |   |   |   |   avg_transaction_value >= 28714.22
|   |   |   |   |   |   |   |   |   |   points_in_wallet < 306.05 : 1 (1/0)
|   |   |   |   |   |   |   |   |   |   points_in_wallet >= 306.05 : 0 (2/0)
|   |   |   |   |   |   |   feedback = Too many ads
|   |   |   |   |   |   |   |   membership_category = No Membership
|   |   |   |   |   |   |   |   |   days_since_last_login < 16 : 1 (10/0)
|   |   |   |   |   |   |   |   |   days_since_last_login >= 16
|   |   |   |   |   |   |   |   |   |   points_in_wallet < 203.42 : 0 (1/0)
|   |   |   |   |   |   |   |   |   |   points_in_wallet >= 203.42 : 1 (1/0)
|   |   |   |   |   |   |   |   membership_category = Platinum Membership : 0 (3/0)
|   |   |   |   |   |   |   |   membership_category = Premium Membership : 0 (2/0)
|   |   |   |   |   |   |   |   membership_category = Basic Membership : 1 (8/0)
|   |   |   |   |   |   |   |   membership_category = Silver Membership
|   |   |   |   |   |   |   |   |   gender = M : 1 (4/0)
|   |   |   |   |   |   |   |   |   gender = F : 0 (1/0)
|   |   |   |   |   |   |   |   membership_category = Gold Membership
|   |   |   |   |   |   |   |   |   points_in_wallet < 322.52 : 1 (1/0)
|   |   |   |   |   |   |   |   |   points_in_wallet >= 322.52 : 0 (1/0)
|   |   |   |   |   |   |   feedback = Quality Customer Care : 0 (3/0)
|   |   |   |   |   |   |   feedback = Poor Customer Service
|   |   |   |   |   |   |   |   complaint_status = Not Applicable
|   |   |   |   |   |   |   |   |   days_since_last_login < 13.5 : 1 (14/0)
|   |   |   |   |   |   |   |   |   days_since_last_login >= 13.5
|   |   |   |   |   |   |   |   |   |   offer_application_preference = No
|   |   |   |   |   |   |   |   |   |   |   region_category = City
|   |   |   |   |   |   |   |   |   |   |   |   membership_category = No Membership : 1 (1/0)
|   |   |   |   |   |   |   |   |   |   |   |   membership_category = Platinum Membership : 0 (1/0)
|   |   |   |   |   |   |   |   |   |   |   |   membership_category = Premium Membership : 0 (1/0)
|   |   |   |   |   |   |   |   |   |   |   |   membership_category = Basic Membership : 0 (0/0)
|   |   |   |   |   |   |   |   |   |   |   |   membership_category = Silver Membership : 0 (1/0)
|   |   |   |   |   |   |   |   |   |   |   |   membership_category = Gold Membership : 0 (0/0)
|   |   |   |   |   |   |   |   |   |   |   region_category = Village : 0 (0/0)
|   |   |   |   |   |   |   |   |   |   |   region_category = Town : 0 (2/0)
|   |   |   |   |   |   |   |   |   |   offer_application_preference = Yes
|   |   |   |   |   |   |   |   |   |   |   points_in_wallet < 216.34 : 1 (2/0)
|   |   |   |   |   |   |   |   |   |   |   points_in_wallet >= 216.34
|   |   |   |   |   |   |   |   |   |   |   |   gender = M : 0 (2/0)
|   |   |   |   |   |   |   |   |   |   |   |   gender = F : 1 (1/0)
|   |   |   |   |   |   |   |   complaint_status = Unsolved : 1 (2/0)
|   |   |   |   |   |   |   |   complaint_status = Solved : 1 (2/0)
|   |   |   |   |   |   |   |   complaint_status = Solved in Follow-up
|   |   |   |   |   |   |   |   |   avg_transaction_value < 41362.39 : 1 (3/0)
|   |   |   |   |   |   |   |   |   avg_transaction_value >= 41362.39 : 0 (1/0)
|   |   |   |   |   |   |   |   complaint_status = No Information Available : 1 (3/0)
|   |   |   |   |   |   |   feedback = No reason specified
|   |   |   |   |   |   |   |   days_since_last_login < 19
|   |   |   |   |   |   |   |   |   offer_application_preference = No
|   |   |   |   |   |   |   |   |   |   membership_category = No Membership : 1 (3/0)
|   |   |   |   |   |   |   |   |   |   membership_category = Platinum Membership : 0 (1/0)
|   |   |   |   |   |   |   |   |   |   membership_category = Premium Membership : 0 (2/0)
|   |   |   |   |   |   |   |   |   |   membership_category = Basic Membership : 1 (4/0)
|   |   |   |   |   |   |   |   |   |   membership_category = Silver Membership : 0 (1/0)
|   |   |   |   |   |   |   |   |   |   membership_category = Gold Membership : 0 (1/0)
|   |   |   |   |   |   |   |   |   offer_application_preference = Yes
|   |   |   |   |   |   |   |   |   |   points_in_wallet < 176.7 : 0 (1/0)
|   |   |   |   |   |   |   |   |   |   points_in_wallet >= 176.7 : 1 (14/0)
|   |   |   |   |   |   |   |   days_since_last_login >= 19 : 1 (4/0)
|   |   |   |   |   |   |   feedback = User Friendly Website : 0 (1/0)
|   |   |   |   |   |   |   feedback = Poor Product Quality
|   |   |   |   |   |   |   |   days_since_last_login < 13.5 : 1 (15/0)
|   |   |   |   |   |   |   |   days_since_last_login >= 13.5
|   |   |   |   |   |   |   |   |   gender = M : 1 (9/0)
|   |   |   |   |   |   |   |   |   gender = F
|   |   |   |   |   |   |   |   |   |   membership_category = No Membership : 1 (2/0)
|   |   |   |   |   |   |   |   |   |   membership_category = Platinum Membership : 0 (0/0)
|   |   |   |   |   |   |   |   |   |   membership_category = Premium Membership : 0 (2/0)
|   |   |   |   |   |   |   |   |   |   membership_category = Basic Membership : 1 (1/0)
|   |   |   |   |   |   |   |   |   |   membership_category = Silver Membership : 1 (1/0)
|   |   |   |   |   |   |   |   |   |   membership_category = Gold Membership : 0 (1/0)
|   |   |   |   |   |   |   feedback = Products always in Stock : 0 (2/0)
|   |   |   |   |   |   |   feedback = Reasonable Price : 0 (4/0)
|   |   |   avg_transaction_value >= 50414.47 : 0 (37/0)
|   |   points_in_wallet >= 386.29
|   |   |   internet_option = Wi-Fi
|   |   |   |   complaint_status = Not Applicable
|   |   |   |   |   membership_category = No Membership : 1 (2/0)
|   |   |   |   |   membership_category = Platinum Membership : 0 (9/0)
|   |   |   |   |   membership_category = Premium Membership : 0 (8/0)
|   |   |   |   |   membership_category = Basic Membership : 1 (2/0)
|   |   |   |   |   membership_category = Silver Membership
|   |   |   |   |   |   feedback = Poor Website
|   |   |   |   |   |   |   region_category = City : 1 (1/0)
|   |   |   |   |   |   |   region_category = Village : 0 (0/0)
|   |   |   |   |   |   |   region_category = Town : 0 (1/0)
|   |   |   |   |   |   feedback = Too many ads : 0 (1/0)
|   |   |   |   |   |   feedback = Quality Customer Care : 0 (0/0)
|   |   |   |   |   |   feedback = Poor Customer Service : 0 (1/0)
|   |   |   |   |   |   feedback = No reason specified : 0 (1/0)
|   |   |   |   |   |   feedback = User Friendly Website : 0 (0/0)
|   |   |   |   |   |   feedback = Poor Product Quality : 0 (1/0)
|   |   |   |   |   |   feedback = Products always in Stock : 0 (0/0)
|   |   |   |   |   |   feedback = Reasonable Price : 0 (1/0)
|   |   |   |   |   membership_category = Gold Membership
|   |   |   |   |   |   days_since_last_login < 14.5 : 0 (6/0)
|   |   |   |   |   |   days_since_last_login >= 14.5
|   |   |   |   |   |   |   preferred_offer_types = Gift Vouchers/Coupons : 0 (1/0)
|   |   |   |   |   |   |   preferred_offer_types = Without Offers
|   |   |   |   |   |   |   |   points_in_wallet < 475.55 : 1 (1/0)
|   |   |   |   |   |   |   |   points_in_wallet >= 475.55 : 0 (1/0)
|   |   |   |   |   |   |   preferred_offer_types = Credit/Debit Card Offers : 0 (1/0)
|   |   |   |   complaint_status = Unsolved : 0 (7/0)
|   |   |   |   complaint_status = Solved
|   |   |   |   |   membership_category = No Membership : 1 (1/0)
|   |   |   |   |   membership_category = Platinum Membership : 0 (0/0)
|   |   |   |   |   membership_category = Premium Membership : 0 (2/0)
|   |   |   |   |   membership_category = Basic Membership : 0 (0/0)
|   |   |   |   |   membership_category = Silver Membership : 0 (2/0)
|   |   |   |   |   membership_category = Gold Membership : 0 (1/0)
|   |   |   |   complaint_status = Solved in Follow-up
|   |   |   |   |   used_special_discount = Yes
|   |   |   |   |   |   region_category = City : 0 (3/0)
|   |   |   |   |   |   region_category = Village : 0 (1/0)
|   |   |   |   |   |   region_category = Town : 1 (1/0)
|   |   |   |   |   used_special_discount = No : 1 (2/0)
|   |   |   |   complaint_status = No Information Available
|   |   |   |   |   membership_category = No Membership : 1 (2/0)
|   |   |   |   |   membership_category = Platinum Membership : 0 (1/0)
|   |   |   |   |   membership_category = Premium Membership : 0 (1/0)
|   |   |   |   |   membership_category = Basic Membership : 1 (1/0)
|   |   |   |   |   membership_category = Silver Membership
|   |   |   |   |   |   offer_application_preference = No : 1 (2/0)
|   |   |   |   |   |   offer_application_preference = Yes : 0 (1/0)
|   |   |   |   |   membership_category = Gold Membership : 0 (2/0)
|   |   |   internet_option = Mobile_Data
|   |   |   |   membership_category = No Membership
|   |   |   |   |   offer_application_preference = No
|   |   |   |   |   |   medium_of_operation = Both : 0 (0/0)
|   |   |   |   |   |   medium_of_operation = Smartphone
|   |   |   |   |   |   |   avg_transaction_value < 18895.75 : 1 (1/0)
|   |   |   |   |   |   |   avg_transaction_value >= 18895.75 : 0 (1/0)
|   |   |   |   |   |   medium_of_operation = Desktop : 1 (1/0)
|   |   |   |   |   offer_application_preference = Yes : 1 (3/0)
|   |   |   |   membership_category = Platinum Membership : 0 (20/0)
|   |   |   |   membership_category = Premium Membership : 0 (14/0)
|   |   |   |   membership_category = Basic Membership : 1 (5/0)
|   |   |   |   membership_category = Silver Membership
|   |   |   |   |   feedback = Poor Website
|   |   |   |   |   |   avg_transaction_value < 36193.67 : 0 (3/0)
|   |   |   |   |   |   avg_transaction_value >= 36193.67 : 1 (1/0)
|   |   |   |   |   feedback = Too many ads : 0 (1/0)
|   |   |   |   |   feedback = Quality Customer Care : 0 (2/0)
|   |   |   |   |   feedback = Poor Customer Service
|   |   |   |   |   |   medium_of_operation = Both : 1 (1/0)
|   |   |   |   |   |   medium_of_operation = Smartphone : 0 (1/0)
|   |   |   |   |   |   medium_of_operation = Desktop : 0 (1/0)
|   |   |   |   |   feedback = No reason specified : 0 (1/0)
|   |   |   |   |   feedback = User Friendly Website : 0 (0/0)
|   |   |   |   |   feedback = Poor Product Quality : 1 (2/0)
|   |   |   |   |   feedback = Products always in Stock : 0 (0/0)
|   |   |   |   |   feedback = Reasonable Price : 0 (2/0)
|   |   |   |   membership_category = Gold Membership
|   |   |   |   |   avg_transaction_value < 49490.91
|   |   |   |   |   |   medium_of_operation = Both : 1 (1/0)
|   |   |   |   |   |   medium_of_operation = Smartphone
|   |   |   |   |   |   |   feedback = Poor Website : 0 (1/0)
|   |   |   |   |   |   |   feedback = Too many ads : 1 (1/0)
|   |   |   |   |   |   |   feedback = Quality Customer Care : 0 (0/0)
|   |   |   |   |   |   |   feedback = Poor Customer Service : 0 (1/0)
|   |   |   |   |   |   |   feedback = No reason specified
|   |   |   |   |   |   |   |   points_in_wallet < 432.72 : 0 (2/0)
|   |   |   |   |   |   |   |   points_in_wallet >= 432.72 : 1 (2/0)
|   |   |   |   |   |   |   feedback = User Friendly Website : 0 (0/0)
|   |   |   |   |   |   |   feedback = Poor Product Quality : 0 (2/0)
|   |   |   |   |   |   |   feedback = Products always in Stock : 0 (0/0)
|   |   |   |   |   |   |   feedback = Reasonable Price : 0 (0/0)
|   |   |   |   |   |   medium_of_operation = Desktop
|   |   |   |   |   |   |   feedback = Poor Website : 1 (1/0)
|   |   |   |   |   |   |   feedback = Too many ads : 0 (0/0)
|   |   |   |   |   |   |   feedback = Quality Customer Care : 0 (1/0)
|   |   |   |   |   |   |   feedback = Poor Customer Service : 1 (2/0)
|   |   |   |   |   |   |   feedback = No reason specified
|   |   |   |   |   |   |   |   offer_application_preference = No : 1 (1/0)
|   |   |   |   |   |   |   |   offer_application_preference = Yes : 0 (1/0)
|   |   |   |   |   |   |   feedback = User Friendly Website : 0 (0/0)
|   |   |   |   |   |   |   feedback = Poor Product Quality : 1 (1/0)
|   |   |   |   |   |   |   feedback = Products always in Stock : 0 (0/0)
|   |   |   |   |   |   |   feedback = Reasonable Price : 0 (0/0)
|   |   |   |   |   avg_transaction_value >= 49490.91 : 0 (7/0)
|   |   |   internet_option = Fiber_Optic
|   |   |   |   membership_category = No Membership : 1 (9/0)
|   |   |   |   membership_category = Platinum Membership : 0 (13/0)
|   |   |   |   membership_category = Premium Membership : 0 (23/0)
|   |   |   |   membership_category = Basic Membership : 1 (4/0)
|   |   |   |   membership_category = Silver Membership
|   |   |   |   |   feedback = Poor Website
|   |   |   |   |   |   offer_application_preference = No : 0 (2/0)
|   |   |   |   |   |   offer_application_preference = Yes : 1 (1/0)
|   |   |   |   |   feedback = Too many ads : 0 (1/0)
|   |   |   |   |   feedback = Quality Customer Care : 0 (1/0)
|   |   |   |   |   feedback = Poor Customer Service : 0 (1/0)
|   |   |   |   |   feedback = No reason specified : 0 (1/0)
|   |   |   |   |   feedback = User Friendly Website : 0 (1/0)
|   |   |   |   |   feedback = Poor Product Quality
|   |   |   |   |   |   preferred_offer_types = Gift Vouchers/Coupons : 0 (1/0)
|   |   |   |   |   |   preferred_offer_types = Without Offers : 1 (1/0)
|   |   |   |   |   |   preferred_offer_types = Credit/Debit Card Offers : 0 (1/0)
|   |   |   |   |   feedback = Products always in Stock : 0 (1/0)
|   |   |   |   |   feedback = Reasonable Price : 0 (0/0)
|   |   |   |   membership_category = Gold Membership : 0 (16/0)
|   points_in_wallet >= 499.64
|   |   avg_transaction_value < 53260.57
|   |   |   points_in_wallet < 534.94
|   |   |   |   days_since_last_login < 3.5 : 1 (16/0)
|   |   |   |   days_since_last_login >= 3.5
|   |   |   |   |   joined_through_referral = No
|   |   |   |   |   |   internet_option = Wi-Fi
|   |   |   |   |   |   |   feedback = Poor Website
|   |   |   |   |   |   |   |   preferred_offer_types = Gift Vouchers/Coupons : 1 (8/0)
|   |   |   |   |   |   |   |   preferred_offer_types = Without Offers : 1 (9/0)
|   |   |   |   |   |   |   |   preferred_offer_types = Credit/Debit Card Offers
|   |   |   |   |   |   |   |   |   avg_transaction_value < 37658.26 : 1 (3/0)
|   |   |   |   |   |   |   |   |   avg_transaction_value >= 37658.26
|   |   |   |   |   |   |   |   |   |   medium_of_operation = Both : 1 (1/0)
|   |   |   |   |   |   |   |   |   |   medium_of_operation = Smartphone : 0 (0/0)
|   |   |   |   |   |   |   |   |   |   medium_of_operation = Desktop : 0 (1/0)
|   |   |   |   |   |   |   feedback = Too many ads
|   |   |   |   |   |   |   |   region_category = City
|   |   |   |   |   |   |   |   |   membership_category = No Membership : 1 (3/0)
|   |   |   |   |   |   |   |   |   membership_category = Platinum Membership : 0 (0/0)
|   |   |   |   |   |   |   |   |   membership_category = Premium Membership : 0 (1/0)
|   |   |   |   |   |   |   |   |   membership_category = Basic Membership : 1 (4/0)
|   |   |   |   |   |   |   |   |   membership_category = Silver Membership : 0 (0/0)
|   |   |   |   |   |   |   |   |   membership_category = Gold Membership : 0 (0/0)
|   |   |   |   |   |   |   |   region_category = Village : 1 (2/0)
|   |   |   |   |   |   |   |   region_category = Town
|   |   |   |   |   |   |   |   |   points_in_wallet < 515.59 : 1 (6/0)
|   |   |   |   |   |   |   |   |   points_in_wallet >= 515.59
|   |   |   |   |   |   |   |   |   |   medium_of_operation = Both : 0 (0/0)
|   |   |   |   |   |   |   |   |   |   medium_of_operation = Smartphone : 1 (1/0)
|   |   |   |   |   |   |   |   |   |   medium_of_operation = Desktop
|   |   |   |   |   |   |   |   |   |   |   offer_application_preference = No
|   |   |   |   |   |   |   |   |   |   |   |   past_complaint = No : 1 (1/0)
|   |   |   |   |   |   |   |   |   |   |   |   past_complaint = Yes : 0 (1/0)
|   |   |   |   |   |   |   |   |   |   |   offer_application_preference = Yes : 0 (1/0)
|   |   |   |   |   |   |   feedback = Quality Customer Care : 0 (0/0)
|   |   |   |   |   |   |   feedback = Poor Customer Service : 1 (10/0)
|   |   |   |   |   |   |   feedback = No reason specified : 1 (12/0)
|   |   |   |   |   |   |   feedback = User Friendly Website : 0 (0/0)
|   |   |   |   |   |   |   feedback = Poor Product Quality : 1 (11/0)
|   |   |   |   |   |   |   feedback = Products always in Stock : 0 (0/0)
|   |   |   |   |   |   |   feedback = Reasonable Price : 0 (1/0)
|   |   |   |   |   |   internet_option = Mobile_Data
|   |   |   |   |   |   |   preferred_offer_types = Gift Vouchers/Coupons
|   |   |   |   |   |   |   |   feedback = Poor Website : 1 (3/0)
|   |   |   |   |   |   |   |   feedback = Too many ads : 1 (4/0)
|   |   |   |   |   |   |   |   feedback = Quality Customer Care : 0 (2/0)
|   |   |   |   |   |   |   |   feedback = Poor Customer Service : 1 (3/0)
|   |   |   |   |   |   |   |   feedback = No reason specified : 1 (2/0)
|   |   |   |   |   |   |   |   feedback = User Friendly Website : 0 (0/0)
|   |   |   |   |   |   |   |   feedback = Poor Product Quality
|   |   |   |   |   |   |   |   |   membership_category = No Membership : 1 (1/0)
|   |   |   |   |   |   |   |   |   membership_category = Platinum Membership : 0 (0/0)
|   |   |   |   |   |   |   |   |   membership_category = Premium Membership : 0 (0/0)
|   |   |   |   |   |   |   |   |   membership_category = Basic Membership : 1 (2/0)
|   |   |   |   |   |   |   |   |   membership_category = Silver Membership : 0 (1/0)
|   |   |   |   |   |   |   |   |   membership_category = Gold Membership : 0 (0/0)
|   |   |   |   |   |   |   |   feedback = Products always in Stock : 0 (2/0)
|   |   |   |   |   |   |   |   feedback = Reasonable Price : 0 (0/0)
|   |   |   |   |   |   |   preferred_offer_types = Without Offers
|   |   |   |   |   |   |   |   feedback = Poor Website
|   |   |   |   |   |   |   |   |   points_in_wallet < 505.25 : 1 (1/0)
|   |   |   |   |   |   |   |   |   points_in_wallet >= 505.25 : 0 (1/0)
|   |   |   |   |   |   |   |   feedback = Too many ads : 1 (8/0)
|   |   |   |   |   |   |   |   feedback = Quality Customer Care : 0 (0/0)
|   |   |   |   |   |   |   |   feedback = Poor Customer Service
|   |   |   |   |   |   |   |   |   complaint_status = Not Applicable
|   |   |   |   |   |   |   |   |   |   avg_transaction_value < 26227.69 : 1 (4/0)
|   |   |   |   |   |   |   |   |   |   avg_transaction_value >= 26227.69
|   |   |   |   |   |   |   |   |   |   |   membership_category = No Membership : 1 (1/0)
|   |   |   |   |   |   |   |   |   |   |   membership_category = Platinum Membership : 0 (1/0)
|   |   |   |   |   |   |   |   |   |   |   membership_category = Premium Membership : 0 (0/0)
|   |   |   |   |   |   |   |   |   |   |   membership_category = Basic Membership : 0 (1/0)
|   |   |   |   |   |   |   |   |   |   |   membership_category = Silver Membership : 0 (0/0)
|   |   |   |   |   |   |   |   |   |   |   membership_category = Gold Membership : 0 (0/0)
|   |   |   |   |   |   |   |   |   complaint_status = Unsolved : 0 (0/0)
|   |   |   |   |   |   |   |   |   complaint_status = Solved : 1 (1/0)
|   |   |   |   |   |   |   |   |   complaint_status = Solved in Follow-up : 0 (0/0)
|   |   |   |   |   |   |   |   |   complaint_status = No Information Available : 1 (1/0)
|   |   |   |   |   |   |   |   feedback = No reason specified : 1 (9/0)
|   |   |   |   |   |   |   |   feedback = User Friendly Website : 0 (1/0)
|   |   |   |   |   |   |   |   feedback = Poor Product Quality : 1 (8/0)
|   |   |   |   |   |   |   |   feedback = Products always in Stock : 0 (0/0)
|   |   |   |   |   |   |   |   feedback = Reasonable Price : 0 (0/0)
|   |   |   |   |   |   |   preferred_offer_types = Credit/Debit Card Offers
|   |   |   |   |   |   |   |   days_since_last_login < 22
|   |   |   |   |   |   |   |   |   days_since_last_login < 7.5
|   |   |   |   |   |   |   |   |   |   used_special_discount = Yes : 1 (3/0)
|   |   |   |   |   |   |   |   |   |   used_special_discount = No : 0 (1/0)
|   |   |   |   |   |   |   |   |   days_since_last_login >= 7.5 : 1 (22/0)
|   |   |   |   |   |   |   |   days_since_last_login >= 22
|   |   |   |   |   |   |   |   |   offer_application_preference = No : 1 (1/0)
|   |   |   |   |   |   |   |   |   offer_application_preference = Yes : 0 (1/0)
|   |   |   |   |   |   internet_option = Fiber_Optic
|   |   |   |   |   |   |   preferred_offer_types = Gift Vouchers/Coupons
|   |   |   |   |   |   |   |   medium_of_operation = Both : 1 (4/0)
|   |   |   |   |   |   |   |   medium_of_operation = Smartphone
|   |   |   |   |   |   |   |   |   complaint_status = Not Applicable
|   |   |   |   |   |   |   |   |   |   offer_application_preference = No : 1 (2/0)
|   |   |   |   |   |   |   |   |   |   offer_application_preference = Yes
|   |   |   |   |   |   |   |   |   |   |   avg_transaction_value < 7378.47 : 0 (1/0)
|   |   |   |   |   |   |   |   |   |   |   avg_transaction_value >= 7378.47 : 1 (3/0)
|   |   |   |   |   |   |   |   |   complaint_status = Unsolved
|   |   |   |   |   |   |   |   |   |   gender = M : 1 (1/0)
|   |   |   |   |   |   |   |   |   |   gender = F : 0 (1/0)
|   |   |   |   |   |   |   |   |   complaint_status = Solved : 0 (0/0)
|   |   |   |   |   |   |   |   |   complaint_status = Solved in Follow-up : 1 (2/0)
|   |   |   |   |   |   |   |   |   complaint_status = No Information Available : 1 (1/0)
|   |   |   |   |   |   |   |   medium_of_operation = Desktop
|   |   |   |   |   |   |   |   |   feedback = Poor Website : 1 (3/0)
|   |   |   |   |   |   |   |   |   feedback = Too many ads
|   |   |   |   |   |   |   |   |   |   avg_transaction_value < 23234.63 : 1 (1/0)
|   |   |   |   |   |   |   |   |   |   avg_transaction_value >= 23234.63 : 0 (1/0)
|   |   |   |   |   |   |   |   |   feedback = Quality Customer Care : 0 (0/0)
|   |   |   |   |   |   |   |   |   feedback = Poor Customer Service : 1 (3/0)
|   |   |   |   |   |   |   |   |   feedback = No reason specified : 1 (2/0)
|   |   |   |   |   |   |   |   |   feedback = User Friendly Website : 0 (0/0)
|   |   |   |   |   |   |   |   |   feedback = Poor Product Quality : 1 (3/0)
|   |   |   |   |   |   |   |   |   feedback = Products always in Stock : 0 (0/0)
|   |   |   |   |   |   |   |   |   feedback = Reasonable Price : 0 (0/0)
|   |   |   |   |   |   |   preferred_offer_types = Without Offers
|   |   |   |   |   |   |   |   points_in_wallet < 501.13 : 0 (1/0)
|   |   |   |   |   |   |   |   points_in_wallet >= 501.13
|   |   |   |   |   |   |   |   |   points_in_wallet < 527.86 : 1 (13/0)
|   |   |   |   |   |   |   |   |   points_in_wallet >= 527.86 : 0 (1/0)
|   |   |   |   |   |   |   preferred_offer_types = Credit/Debit Card Offers : 1 (25/0)
|   |   |   |   |   joined_through_referral = Yes
|   |   |   |   |   |   membership_category = No Membership
|   |   |   |   |   |   |   used_special_discount = Yes
|   |   |   |   |   |   |   |   avg_transaction_value < 46872.31 : 1 (58/0)
|   |   |   |   |   |   |   |   avg_transaction_value >= 46872.31
|   |   |   |   |   |   |   |   |   internet_option = Wi-Fi : 1 (2/0)
|   |   |   |   |   |   |   |   |   internet_option = Mobile_Data : 0 (1/0)
|   |   |   |   |   |   |   |   |   internet_option = Fiber_Optic : 1 (3/0)
|   |   |   |   |   |   |   used_special_discount = No
|   |   |   |   |   |   |   |   feedback = Poor Website
|   |   |   |   |   |   |   |   |   days_since_last_login < 22
|   |   |   |   |   |   |   |   |   |   medium_of_operation = Both : 1 (2/0)
|   |   |   |   |   |   |   |   |   |   medium_of_operation = Smartphone
|   |   |   |   |   |   |   |   |   |   |   points_in_wallet < 530.98 : 1 (4/0)
|   |   |   |   |   |   |   |   |   |   |   points_in_wallet >= 530.98 : 0 (1/0)
|   |   |   |   |   |   |   |   |   |   medium_of_operation = Desktop : 1 (6/0)
|   |   |   |   |   |   |   |   |   days_since_last_login >= 22 : 0 (1/0)
|   |   |   |   |   |   |   |   feedback = Too many ads
|   |   |   |   |   |   |   |   |   days_since_last_login < 8
|   |   |   |   |   |   |   |   |   |   points_in_wallet < 527.96 : 0 (1/0)
|   |   |   |   |   |   |   |   |   |   points_in_wallet >= 527.96 : 1 (1/0)
|   |   |   |   |   |   |   |   |   days_since_last_login >= 8 : 1 (4/0)
|   |   |   |   |   |   |   |   feedback = Quality Customer Care : 0 (0/0)
|   |   |   |   |   |   |   |   feedback = Poor Customer Service : 1 (10/0)
|   |   |   |   |   |   |   |   feedback = No reason specified
|   |   |   |   |   |   |   |   |   region_category = City
|   |   |   |   |   |   |   |   |   |   internet_option = Wi-Fi : 0 (0/0)
|   |   |   |   |   |   |   |   |   |   internet_option = Mobile_Data : 1 (1/0)
|   |   |   |   |   |   |   |   |   |   internet_option = Fiber_Optic : 0 (1/0)
|   |   |   |   |   |   |   |   |   region_category = Village
|   |   |   |   |   |   |   |   |   |   points_in_wallet < 521.13 : 1 (1/0)
|   |   |   |   |   |   |   |   |   |   points_in_wallet >= 521.13 : 0 (1/0)
|   |   |   |   |   |   |   |   |   region_category = Town : 1 (4/0)
|   |   |   |   |   |   |   |   feedback = User Friendly Website : 0 (0/0)
|   |   |   |   |   |   |   |   feedback = Poor Product Quality : 1 (6/0)
|   |   |   |   |   |   |   |   feedback = Products always in Stock : 0 (0/0)
|   |   |   |   |   |   |   |   feedback = Reasonable Price : 0 (0/0)
|   |   |   |   |   |   membership_category = Platinum Membership : 0 (7/0)
|   |   |   |   |   |   membership_category = Premium Membership : 0 (2/0)
|   |   |   |   |   |   membership_category = Basic Membership
|   |   |   |   |   |   |   used_special_discount = Yes
|   |   |   |   |   |   |   |   avg_transaction_value < 44842.36
|   |   |   |   |   |   |   |   |   days_since_last_login < 21.5 : 1 (51/0)
|   |   |   |   |   |   |   |   |   days_since_last_login >= 21.5
|   |   |   |   |   |   |   |   |   |   internet_option = Wi-Fi : 1 (2/0)
|   |   |   |   |   |   |   |   |   |   internet_option = Mobile_Data : 0 (0/0)
|   |   |   |   |   |   |   |   |   |   internet_option = Fiber_Optic
|   |   |   |   |   |   |   |   |   |   |   feedback = Poor Website : 0 (0/0)
|   |   |   |   |   |   |   |   |   |   |   feedback = Too many ads : 0 (1/0)
|   |   |   |   |   |   |   |   |   |   |   feedback = Quality Customer Care : 0 (0/0)
|   |   |   |   |   |   |   |   |   |   |   feedback = Poor Customer Service : 1 (1/0)
|   |   |   |   |   |   |   |   |   |   |   feedback = No reason specified : 0 (0/0)
|   |   |   |   |   |   |   |   |   |   |   feedback = User Friendly Website : 0 (0/0)
|   |   |   |   |   |   |   |   |   |   |   feedback = Poor Product Quality : 0 (0/0)
|   |   |   |   |   |   |   |   |   |   |   feedback = Products always in Stock : 0 (0/0)
|   |   |   |   |   |   |   |   |   |   |   feedback = Reasonable Price : 0 (0/0)
|   |   |   |   |   |   |   |   avg_transaction_value >= 44842.36
|   |   |   |   |   |   |   |   |   complaint_status = Not Applicable
|   |   |   |   |   |   |   |   |   |   avg_transaction_value < 46958.3 : 0 (2/0)
|   |   |   |   |   |   |   |   |   |   avg_transaction_value >= 46958.3 : 1 (1/0)
|   |   |   |   |   |   |   |   |   complaint_status = Unsolved : 1 (2/0)
|   |   |   |   |   |   |   |   |   complaint_status = Solved
|   |   |   |   |   |   |   |   |   |   feedback = Poor Website : 0 (0/0)
|   |   |   |   |   |   |   |   |   |   feedback = Too many ads : 0 (1/0)
|   |   |   |   |   |   |   |   |   |   feedback = Quality Customer Care : 0 (0/0)
|   |   |   |   |   |   |   |   |   |   feedback = Poor Customer Service : 0 (0/0)
|   |   |   |   |   |   |   |   |   |   feedback = No reason specified : 0 (0/0)
|   |   |   |   |   |   |   |   |   |   feedback = User Friendly Website : 0 (0/0)
|   |   |   |   |   |   |   |   |   |   feedback = Poor Product Quality : 1 (1/0)
|   |   |   |   |   |   |   |   |   |   feedback = Products always in Stock : 0 (0/0)
|   |   |   |   |   |   |   |   |   |   feedback = Reasonable Price : 0 (0/0)
|   |   |   |   |   |   |   |   |   complaint_status = Solved in Follow-up : 0 (0/0)
|   |   |   |   |   |   |   |   |   complaint_status = No Information Available : 0 (0/0)
|   |   |   |   |   |   |   used_special_discount = No : 1 (61/0)
|   |   |   |   |   |   membership_category = Silver Membership : 0 (5/0)
|   |   |   |   |   |   membership_category = Gold Membership : 0 (8/0)
|   |   |   points_in_wallet >= 534.94
|   |   |   |   membership_category = No Membership
|   |   |   |   |   medium_of_operation = Both
|   |   |   |   |   |   preferred_offer_types = Gift Vouchers/Coupons
|   |   |   |   |   |   |   internet_option = Wi-Fi : 1 (27/0)
|   |   |   |   |   |   |   internet_option = Mobile_Data
|   |   |   |   |   |   |   |   offer_application_preference = No
|   |   |   |   |   |   |   |   |   feedback = Poor Website : 1 (1/0)
|   |   |   |   |   |   |   |   |   feedback = Too many ads : 1 (2/0)
|   |   |   |   |   |   |   |   |   feedback = Quality Customer Care : 0 (0/0)
|   |   |   |   |   |   |   |   |   feedback = Poor Customer Service
|   |   |   |   |   |   |   |   |   |   complaint_status = Not Applicable : 1 (1/0)
|   |   |   |   |   |   |   |   |   |   complaint_status = Unsolved : 0 (0/0)
|   |   |   |   |   |   |   |   |   |   complaint_status = Solved : 0 (0/0)
|   |   |   |   |   |   |   |   |   |   complaint_status = Solved in Follow-up : 0 (0/0)
|   |   |   |   |   |   |   |   |   |   complaint_status = No Information Available : 0 (1/0)
|   |   |   |   |   |   |   |   |   feedback = No reason specified : 1 (1/0)
|   |   |   |   |   |   |   |   |   feedback = User Friendly Website : 0 (0/0)
|   |   |   |   |   |   |   |   |   feedback = Poor Product Quality : 1 (2/0)
|   |   |   |   |   |   |   |   |   feedback = Products always in Stock : 0 (0/0)
|   |   |   |   |   |   |   |   |   feedback = Reasonable Price : 0 (0/0)
|   |   |   |   |   |   |   |   offer_application_preference = Yes : 1 (21/0)
|   |   |   |   |   |   |   internet_option = Fiber_Optic
|   |   |   |   |   |   |   |   feedback = Poor Website
|   |   |   |   |   |   |   |   |   avg_transaction_value < 39461.55 : 1 (3/0)
|   |   |   |   |   |   |   |   |   avg_transaction_value >= 39461.55
|   |   |   |   |   |   |   |   |   |   avg_transaction_value < 48357.8 : 0 (1/0)
|   |   |   |   |   |   |   |   |   |   avg_transaction_value >= 48357.8 : 1 (1/0)
|   |   |   |   |   |   |   |   feedback = Too many ads : 1 (4/0)
|   |   |   |   |   |   |   |   feedback = Quality Customer Care : 0 (0/0)
|   |   |   |   |   |   |   |   feedback = Poor Customer Service
|   |   |   |   |   |   |   |   |   points_in_wallet < 663.12 : 1 (3/0)
|   |   |   |   |   |   |   |   |   points_in_wallet >= 663.12
|   |   |   |   |   |   |   |   |   |   complaint_status = Not Applicable : 1 (1/0)
|   |   |   |   |   |   |   |   |   |   complaint_status = Unsolved : 0 (0/0)
|   |   |   |   |   |   |   |   |   |   complaint_status = Solved : 0 (0/0)
|   |   |   |   |   |   |   |   |   |   complaint_status = Solved in Follow-up : 0 (0/0)
|   |   |   |   |   |   |   |   |   |   complaint_status = No Information Available : 0 (1/0)
|   |   |   |   |   |   |   |   feedback = No reason specified
|   |   |   |   |   |   |   |   |   past_complaint = No
|   |   |   |   |   |   |   |   |   |   points_in_wallet < 609.54 : 1 (1/0)
|   |   |   |   |   |   |   |   |   |   points_in_wallet >= 609.54 : 0 (1/0)
|   |   |   |   |   |   |   |   |   past_complaint = Yes : 1 (4/0)
|   |   |   |   |   |   |   |   feedback = User Friendly Website : 0 (0/0)
|   |   |   |   |   |   |   |   feedback = Poor Product Quality : 1 (5/0)
|   |   |   |   |   |   |   |   feedback = Products always in Stock : 0 (0/0)
|   |   |   |   |   |   |   |   feedback = Reasonable Price : 0 (0/0)
|   |   |   |   |   |   preferred_offer_types = Without Offers
|   |   |   |   |   |   |   avg_transaction_value < 39652.93 : 1 (63/0)
|   |   |   |   |   |   |   avg_transaction_value >= 39652.93
|   |   |   |   |   |   |   |   avg_transaction_value < 39714.24 : 0 (1/0)
|   |   |   |   |   |   |   |   avg_transaction_value >= 39714.24 : 1 (11/0)
|   |   |   |   |   |   preferred_offer_types = Credit/Debit Card Offers
|   |   |   |   |   |   |   days_since_last_login < 13.5 : 1 (44/0)
|   |   |   |   |   |   |   days_since_last_login >= 13.5
|   |   |   |   |   |   |   |   joined_through_referral = No : 1 (10/0)
|   |   |   |   |   |   |   |   joined_through_referral = Yes
|   |   |   |   |   |   |   |   |   used_special_discount = Yes : 1 (5/0)
|   |   |   |   |   |   |   |   |   used_special_discount = No
|   |   |   |   |   |   |   |   |   |   avg_transaction_value < 15585.49 : 1 (2/0)
|   |   |   |   |   |   |   |   |   |   avg_transaction_value >= 15585.49
|   |   |   |   |   |   |   |   |   |   |   internet_option = Wi-Fi : 0 (2/0)
|   |   |   |   |   |   |   |   |   |   |   internet_option = Mobile_Data : 1 (1/0)
|   |   |   |   |   |   |   |   |   |   |   internet_option = Fiber_Optic : 0 (0/0)
|   |   |   |   |   medium_of_operation = Smartphone
|   |   |   |   |   |   avg_transaction_value < 2746.29
|   |   |   |   |   |   |   used_special_discount = Yes
|   |   |   |   |   |   |   |   days_since_last_login < 6.5
|   |   |   |   |   |   |   |   |   region_category = City : 0 (1/0)
|   |   |   |   |   |   |   |   |   region_category = Village : 1 (1/0)
|   |   |   |   |   |   |   |   |   region_category = Town : 0 (2/0)
|   |   |   |   |   |   |   |   days_since_last_login >= 6.5
|   |   |   |   |   |   |   |   |   internet_option = Wi-Fi : 1 (5/0)
|   |   |   |   |   |   |   |   |   internet_option = Mobile_Data
|   |   |   |   |   |   |   |   |   |   avg_transaction_value < 2610.88 : 1 (5/0)
|   |   |   |   |   |   |   |   |   |   avg_transaction_value >= 2610.88 : 0 (1/0)
|   |   |   |   |   |   |   |   |   internet_option = Fiber_Optic
|   |   |   |   |   |   |   |   |   |   region_category = City
|   |   |   |   |   |   |   |   |   |   |   feedback = Poor Website : 0 (0/0)
|   |   |   |   |   |   |   |   |   |   |   feedback = Too many ads : 0 (0/0)
|   |   |   |   |   |   |   |   |   |   |   feedback = Quality Customer Care : 0 (0/0)
|   |   |   |   |   |   |   |   |   |   |   feedback = Poor Customer Service : 0 (0/0)
|   |   |   |   |   |   |   |   |   |   |   feedback = No reason specified : 1 (1/0)
|   |   |   |   |   |   |   |   |   |   |   feedback = User Friendly Website : 0 (0/0)
|   |   |   |   |   |   |   |   |   |   |   feedback = Poor Product Quality : 0 (1/0)
|   |   |   |   |   |   |   |   |   |   |   feedback = Products always in Stock : 0 (0/0)
|   |   |   |   |   |   |   |   |   |   |   feedback = Reasonable Price : 0 (0/0)
|   |   |   |   |   |   |   |   |   |   region_category = Village : 1 (2/0)
|   |   |   |   |   |   |   |   |   |   region_category = Town : 1 (1/0)
|   |   |   |   |   |   |   used_special_discount = No : 1 (17/0)
|   |   |   |   |   |   avg_transaction_value >= 2746.29
|   |   |   |   |   |   |   days_since_last_login < 19.5
|   |   |   |   |   |   |   |   internet_option = Wi-Fi
|   |   |   |   |   |   |   |   |   used_special_discount = Yes
|   |   |   |   |   |   |   |   |   |   points_in_wallet < 679.32
|   |   |   |   |   |   |   |   |   |   |   preferred_offer_types = Gift Vouchers/Coupons : 1 (27/0)
|   |   |   |   |   |   |   |   |   |   |   preferred_offer_types = Without Offers : 1 (35/0)
|   |   |   |   |   |   |   |   |   |   |   preferred_offer_types = Credit/Debit Card Offers
|   |   |   |   |   |   |   |   |   |   |   |   feedback = Poor Website : 1 (5/0)
|   |   |   |   |   |   |   |   |   |   |   |   feedback = Too many ads
|   |   |   |   |   |   |   |   |   |   |   |   |   complaint_status = Not Applicable
|   |   |   |   |   |   |   |   |   |   |   |   |   |   points_in_wallet < 617.41 : 1 (4/0)
|   |   |   |   |   |   |   |   |   |   |   |   |   |   points_in_wallet >= 617.41
|   |   |   |   |   |   |   |   |   |   |   |   |   |   |   points_in_wallet < 630.9 : 0 (1/0)
|   |   |   |   |   |   |   |   |   |   |   |   |   |   |   points_in_wallet >= 630.9 : 1 (2/0)
|   |   |   |   |   |   |   |   |   |   |   |   |   complaint_status = Unsolved : 1 (2/0)
|   |   |   |   |   |   |   |   |   |   |   |   |   complaint_status = Solved : 0 (0/0)
|   |   |   |   |   |   |   |   |   |   |   |   |   complaint_status = Solved in Follow-up : 1 (1/0)
|   |   |   |   |   |   |   |   |   |   |   |   |   complaint_status = No Information Available : 1 (2/0)
|   |   |   |   |   |   |   |   |   |   |   |   feedback = Quality Customer Care : 0 (0/0)
|   |   |   |   |   |   |   |   |   |   |   |   feedback = Poor Customer Service : 1 (8/0)
|   |   |   |   |   |   |   |   |   |   |   |   feedback = No reason specified
|   |   |   |   |   |   |   |   |   |   |   |   |   gender = M
|   |   |   |   |   |   |   |   |   |   |   |   |   |   avg_transaction_value < 20002.45 : 1 (1/0)
|   |   |   |   |   |   |   |   |   |   |   |   |   |   avg_transaction_value >= 20002.45
|   |   |   |   |   |   |   |   |   |   |   |   |   |   |   points_in_wallet < 642.95 : 1 (1/0)
|   |   |   |   |   |   |   |   |   |   |   |   |   |   |   points_in_wallet >= 642.95 : 0 (1/0)
|   |   |   |   |   |   |   |   |   |   |   |   |   gender = F : 1 (7/0)
|   |   |   |   |   |   |   |   |   |   |   |   feedback = User Friendly Website : 0 (0/0)
|   |   |   |   |   |   |   |   |   |   |   |   feedback = Poor Product Quality : 1 (11/0)
|   |   |   |   |   |   |   |   |   |   |   |   feedback = Products always in Stock : 0 (0/0)
|   |   |   |   |   |   |   |   |   |   |   |   feedback = Reasonable Price : 0 (0/0)
|   |   |   |   |   |   |   |   |   |   points_in_wallet >= 679.32
|   |   |   |   |   |   |   |   |   |   |   complaint_status = Not Applicable
|   |   |   |   |   |   |   |   |   |   |   |   preferred_offer_types = Gift Vouchers/Coupons
|   |   |   |   |   |   |   |   |   |   |   |   |   feedback = Poor Website
|   |   |   |   |   |   |   |   |   |   |   |   |   |   points_in_wallet < 685.59 : 1 (1/0)
|   |   |   |   |   |   |   |   |   |   |   |   |   |   points_in_wallet >= 685.59 : 0 (1/0)
|   |   |   |   |   |   |   |   |   |   |   |   |   feedback = Too many ads : 0 (0/0)
|   |   |   |   |   |   |   |   |   |   |   |   |   feedback = Quality Customer Care : 0 (0/0)
|   |   |   |   |   |   |   |   |   |   |   |   |   feedback = Poor Customer Service : 1 (1/0)
|   |   |   |   |   |   |   |   |   |   |   |   |   feedback = No reason specified : 1 (1/0)
|   |   |   |   |   |   |   |   |   |   |   |   |   feedback = User Friendly Website : 0 (0/0)
|   |   |   |   |   |   |   |   |   |   |   |   |   feedback = Poor Product Quality : 0 (1/0)
|   |   |   |   |   |   |   |   |   |   |   |   |   feedback = Products always in Stock : 0 (0/0)
|   |   |   |   |   |   |   |   |   |   |   |   |   feedback = Reasonable Price : 0 (0/0)
|   |   |   |   |   |   |   |   |   |   |   |   preferred_offer_types = Without Offers
|   |   |   |   |   |   |   |   |   |   |   |   |   days_since_last_login < 5 : 0 (1/0)
|   |   |   |   |   |   |   |   |   |   |   |   |   days_since_last_login >= 5 : 1 (2/0)
|   |   |   |   |   |   |   |   |   |   |   |   preferred_offer_types = Credit/Debit Card Offers : 1 (4/0)
|   |   |   |   |   |   |   |   |   |   |   complaint_status = Unsolved : 1 (1/0)
|   |   |   |   |   |   |   |   |   |   |   complaint_status = Solved
|   |   |   |   |   |   |   |   |   |   |   |   avg_transaction_value < 39921.5 : 1 (1/0)
|   |   |   |   |   |   |   |   |   |   |   |   avg_transaction_value >= 39921.5 : 0 (1/0)
|   |   |   |   |   |   |   |   |   |   |   complaint_status = Solved in Follow-up : 1 (1/0)
|   |   |   |   |   |   |   |   |   |   |   complaint_status = No Information Available
|   |   |   |   |   |   |   |   |   |   |   |   avg_transaction_value < 35729.95 : 1 (3/0)
|   |   |   |   |   |   |   |   |   |   |   |   avg_transaction_value >= 35729.95 : 0 (1/0)
|   |   |   |   |   |   |   |   |   used_special_discount = No
|   |   |   |   |   |   |   |   |   |   complaint_status = Not Applicable : 1 (44/0)
|   |   |   |   |   |   |   |   |   |   complaint_status = Unsolved
|   |   |   |   |   |   |   |   |   |   |   days_since_last_login < 11.5 : 1 (5/0)
|   |   |   |   |   |   |   |   |   |   |   days_since_last_login >= 11.5
|   |   |   |   |   |   |   |   |   |   |   |   feedback = Poor Website : 0 (0/0)
|   |   |   |   |   |   |   |   |   |   |   |   feedback = Too many ads : 1 (1/0)
|   |   |   |   |   |   |   |   |   |   |   |   feedback = Quality Customer Care : 0 (0/0)
|   |   |   |   |   |   |   |   |   |   |   |   feedback = Poor Customer Service
|   |   |   |   |   |   |   |   |   |   |   |   |   days_since_last_login < 14 : 0 (1/0)
|   |   |   |   |   |   |   |   |   |   |   |   |   days_since_last_login >= 14 : 1 (1/0)
|   |   |   |   |   |   |   |   |   |   |   |   feedback = No reason specified : 0 (0/0)
|   |   |   |   |   |   |   |   |   |   |   |   feedback = User Friendly Website : 0 (0/0)
|   |   |   |   |   |   |   |   |   |   |   |   feedback = Poor Product Quality : 0 (0/0)
|   |   |   |   |   |   |   |   |   |   |   |   feedback = Products always in Stock : 0 (0/0)
|   |   |   |   |   |   |   |   |   |   |   |   feedback = Reasonable Price : 0 (0/0)
|   |   |   |   |   |   |   |   |   |   complaint_status = Solved
|   |   |   |   |   |   |   |   |   |   |   feedback = Poor Website : 1 (1/0)
|   |   |   |   |   |   |   |   |   |   |   feedback = Too many ads
|   |   |   |   |   |   |   |   |   |   |   |   avg_transaction_value < 11209.17 : 1 (1/0)
|   |   |   |   |   |   |   |   |   |   |   |   avg_transaction_value >= 11209.17 : 0 (1/0)
|   |   |   |   |   |   |   |   |   |   |   feedback = Quality Customer Care : 0 (0/0)
|   |   |   |   |   |   |   |   |   |   |   feedback = Poor Customer Service : 1 (3/0)
|   |   |   |   |   |   |   |   |   |   |   feedback = No reason specified : 1 (4/0)
|   |   |   |   |   |   |   |   |   |   |   feedback = User Friendly Website : 0 (0/0)
|   |   |   |   |   |   |   |   |   |   |   feedback = Poor Product Quality : 0 (0/0)
|   |   |   |   |   |   |   |   |   |   |   feedback = Products always in Stock : 0 (0/0)
|   |   |   |   |   |   |   |   |   |   |   feedback = Reasonable Price : 0 (0/0)
|   |   |   |   |   |   |   |   |   |   complaint_status = Solved in Follow-up : 1 (10/0)
|   |   |   |   |   |   |   |   |   |   complaint_status = No Information Available : 1 (15/0)
|   |   |   |   |   |   |   |   internet_option = Mobile_Data
|   |   |   |   |   |   |   |   |   complaint_status = Not Applicable
|   |   |   |   |   |   |   |   |   |   days_since_last_login < 15.5 : 1 (86/0)
|   |   |   |   |   |   |   |   |   |   days_since_last_login >= 15.5
|   |   |   |   |   |   |   |   |   |   |   points_in_wallet < 639.07 : 1 (16/0)
|   |   |   |   |   |   |   |   |   |   |   points_in_wallet >= 639.07
|   |   |   |   |   |   |   |   |   |   |   |   points_in_wallet < 649.93
|   |   |   |   |   |   |   |   |   |   |   |   |   used_special_discount = Yes
|   |   |   |   |   |   |   |   |   |   |   |   |   |   days_since_last_login < 17.5 : 0 (1/0)
|   |   |   |   |   |   |   |   |   |   |   |   |   |   days_since_last_login >= 17.5 : 1 (1/0)
|   |   |   |   |   |   |   |   |   |   |   |   |   used_special_discount = No : 0 (1/0)
|   |   |   |   |   |   |   |   |   |   |   |   points_in_wallet >= 649.93 : 1 (14/0)
|   |   |   |   |   |   |   |   |   complaint_status = Unsolved : 1 (24/0)
|   |   |   |   |   |   |   |   |   complaint_status = Solved : 1 (23/0)
|   |   |   |   |   |   |   |   |   complaint_status = Solved in Follow-up : 1 (25/0)
|   |   |   |   |   |   |   |   |   complaint_status = No Information Available : 1 (20/0)
|   |   |   |   |   |   |   |   internet_option = Fiber_Optic
|   |   |   |   |   |   |   |   |   complaint_status = Not Applicable
|   |   |   |   |   |   |   |   |   |   preferred_offer_types = Gift Vouchers/Coupons : 1 (33/0)
|   |   |   |   |   |   |   |   |   |   preferred_offer_types = Without Offers
|   |   |   |   |   |   |   |   |   |   |   avg_transaction_value < 8817.29
|   |   |   |   |   |   |   |   |   |   |   |   points_in_wallet < 646.04 : 1 (2/0)
|   |   |   |   |   |   |   |   |   |   |   |   points_in_wallet >= 646.04 : 0 (1/0)
|   |   |   |   |   |   |   |   |   |   |   avg_transaction_value >= 8817.29 : 1 (33/0)
|   |   |   |   |   |   |   |   |   |   preferred_offer_types = Credit/Debit Card Offers
|   |   |   |   |   |   |   |   |   |   |   feedback = Poor Website : 1 (6/0)
|   |   |   |   |   |   |   |   |   |   |   feedback = Too many ads : 1 (7/0)
|   |   |   |   |   |   |   |   |   |   |   feedback = Quality Customer Care : 0 (0/0)
|   |   |   |   |   |   |   |   |   |   |   feedback = Poor Customer Service
|   |   |   |   |   |   |   |   |   |   |   |   joined_through_referral = No : 1 (3/0)
|   |   |   |   |   |   |   |   |   |   |   |   joined_through_referral = Yes
|   |   |   |   |   |   |   |   |   |   |   |   |   avg_transaction_value < 29954.18 : 0 (1/0)
|   |   |   |   |   |   |   |   |   |   |   |   |   avg_transaction_value >= 29954.18 : 1 (1/0)
|   |   |   |   |   |   |   |   |   |   |   feedback = No reason specified
|   |   |   |   |   |   |   |   |   |   |   |   used_special_discount = Yes : 1 (2/0)
|   |   |   |   |   |   |   |   |   |   |   |   used_special_discount = No
|   |   |   |   |   |   |   |   |   |   |   |   |   avg_transaction_value < 24862.07 : 1 (2/0)
|   |   |   |   |   |   |   |   |   |   |   |   |   avg_transaction_value >= 24862.07 : 0 (2/0)
|   |   |   |   |   |   |   |   |   |   |   feedback = User Friendly Website : 0 (0/0)
|   |   |   |   |   |   |   |   |   |   |   feedback = Poor Product Quality
|   |   |   |   |   |   |   |   |   |   |   |   points_in_wallet < 654.43 : 1 (5/0)
|   |   |   |   |   |   |   |   |   |   |   |   points_in_wallet >= 654.43
|   |   |   |   |   |   |   |   |   |   |   |   |   avg_transaction_value < 29072.67 : 1 (1/0)
|   |   |   |   |   |   |   |   |   |   |   |   |   avg_transaction_value >= 29072.67 : 0 (1/0)
|   |   |   |   |   |   |   |   |   |   |   feedback = Products always in Stock : 0 (0/0)
|   |   |   |   |   |   |   |   |   |   |   feedback = Reasonable Price : 0 (0/0)
|   |   |   |   |   |   |   |   |   complaint_status = Unsolved : 1 (33/0)
|   |   |   |   |   |   |   |   |   complaint_status = Solved
|   |   |   |   |   |   |   |   |   |   points_in_wallet < 604.96
|   |   |   |   |   |   |   |   |   |   |   region_category = City : 0 (1/0)
|   |   |   |   |   |   |   |   |   |   |   region_category = Village : 0 (0/0)
|   |   |   |   |   |   |   |   |   |   |   region_category = Town
|   |   |   |   |   |   |   |   |   |   |   |   offer_application_preference = No : 1 (1/0)
|   |   |   |   |   |   |   |   |   |   |   |   offer_application_preference = Yes
|   |   |   |   |   |   |   |   |   |   |   |   |   gender = M : 0 (1/0)
|   |   |   |   |   |   |   |   |   |   |   |   |   gender = F : 1 (1/0)
|   |   |   |   |   |   |   |   |   |   points_in_wallet >= 604.96
|   |   |   |   |   |   |   |   |   |   |   preferred_offer_types = Gift Vouchers/Coupons : 1 (6/0)
|   |   |   |   |   |   |   |   |   |   |   preferred_offer_types = Without Offers
|   |   |   |   |   |   |   |   |   |   |   |   feedback = Poor Website
|   |   |   |   |   |   |   |   |   |   |   |   |   joined_through_referral = No : 1 (1/0)
|   |   |   |   |   |   |   |   |   |   |   |   |   joined_through_referral = Yes : 0 (1/0)
|   |   |   |   |   |   |   |   |   |   |   |   feedback = Too many ads : 1 (2/0)
|   |   |   |   |   |   |   |   |   |   |   |   feedback = Quality Customer Care : 0 (0/0)
|   |   |   |   |   |   |   |   |   |   |   |   feedback = Poor Customer Service : 0 (0/0)
|   |   |   |   |   |   |   |   |   |   |   |   feedback = No reason specified : 1 (1/0)
|   |   |   |   |   |   |   |   |   |   |   |   feedback = User Friendly Website : 0 (0/0)
|   |   |   |   |   |   |   |   |   |   |   |   feedback = Poor Product Quality : 1 (2/0)
|   |   |   |   |   |   |   |   |   |   |   |   feedback = Products always in Stock : 0 (0/0)
|   |   |   |   |   |   |   |   |   |   |   |   feedback = Reasonable Price : 0 (0/0)
|   |   |   |   |   |   |   |   |   |   |   preferred_offer_types = Credit/Debit Card Offers : 1 (9/0)
|   |   |   |   |   |   |   |   |   complaint_status = Solved in Follow-up
|   |   |   |   |   |   |   |   |   |   preferred_offer_types = Gift Vouchers/Coupons : 1 (7/0)
|   |   |   |   |   |   |   |   |   |   preferred_offer_types = Without Offers
|   |   |   |   |   |   |   |   |   |   |   offer_application_preference = No : 1 (3/0)
|   |   |   |   |   |   |   |   |   |   |   offer_application_preference = Yes
|   |   |   |   |   |   |   |   |   |   |   |   region_category = City : 0 (1/0)
|   |   |   |   |   |   |   |   |   |   |   |   region_category = Village : 1 (2/0)
|   |   |   |   |   |   |   |   |   |   |   |   region_category = Town
|   |   |   |   |   |   |   |   |   |   |   |   |   avg_transaction_value < 37422.97 : 1 (3/0)
|   |   |   |   |   |   |   |   |   |   |   |   |   avg_transaction_value >= 37422.97 : 0 (1/0)
|   |   |   |   |   |   |   |   |   |   preferred_offer_types = Credit/Debit Card Offers
|   |   |   |   |   |   |   |   |   |   |   days_since_last_login < 18.5
|   |   |   |   |   |   |   |   |   |   |   |   avg_transaction_value < 11991.32 : 0 (1/0)
|   |   |   |   |   |   |   |   |   |   |   |   avg_transaction_value >= 11991.32 : 1 (7/0)
|   |   |   |   |   |   |   |   |   |   |   days_since_last_login >= 18.5 : 0 (1/0)
|   |   |   |   |   |   |   |   |   complaint_status = No Information Available
|   |   |   |   |   |   |   |   |   |   points_in_wallet < 550.76
|   |   |   |   |   |   |   |   |   |   |   points_in_wallet < 544.43 : 1 (1/0)
|   |   |   |   |   |   |   |   |   |   |   points_in_wallet >= 544.43 : 0 (1/0)
|   |   |   |   |   |   |   |   |   |   points_in_wallet >= 550.76 : 1 (27/0)
|   |   |   |   |   |   |   days_since_last_login >= 19.5
|   |   |   |   |   |   |   |   days_since_last_login < 23.5
|   |   |   |   |   |   |   |   |   feedback = Poor Website
|   |   |   |   |   |   |   |   |   |   avg_transaction_value < 27524.22
|   |   |   |   |   |   |   |   |   |   |   preferred_offer_types = Gift Vouchers/Coupons : 1 (3/0)
|   |   |   |   |   |   |   |   |   |   |   preferred_offer_types = Without Offers
|   |   |   |   |   |   |   |   |   |   |   |   internet_option = Wi-Fi : 1 (1/0)
|   |   |   |   |   |   |   |   |   |   |   |   internet_option = Mobile_Data : 0 (0/0)
|   |   |   |   |   |   |   |   |   |   |   |   internet_option = Fiber_Optic : 0 (2/0)
|   |   |   |   |   |   |   |   |   |   |   preferred_offer_types = Credit/Debit Card Offers : 1 (3/0)
|   |   |   |   |   |   |   |   |   |   avg_transaction_value >= 27524.22 : 1 (15/0)
|   |   |   |   |   |   |   |   |   feedback = Too many ads
|   |   |   |   |   |   |   |   |   |   complaint_status = Not Applicable
|   |   |   |   |   |   |   |   |   |   |   internet_option = Wi-Fi : 1 (5/0)
|   |   |   |   |   |   |   |   |   |   |   internet_option = Mobile_Data
|   |   |   |   |   |   |   |   |   |   |   |   points_in_wallet < 673.87 : 1 (1/0)
|   |   |   |   |   |   |   |   |   |   |   |   points_in_wallet >= 673.87 : 0 (1/0)
|   |   |   |   |   |   |   |   |   |   |   internet_option = Fiber_Optic
|   |   |   |   |   |   |   |   |   |   |   |   points_in_wallet < 582.01 : 1 (2/0)
|   |   |   |   |   |   |   |   |   |   |   |   points_in_wallet >= 582.01
|   |   |   |   |   |   |   |   |   |   |   |   |   avg_transaction_value < 31949.1 : 1 (2/0)
|   |   |   |   |   |   |   |   |   |   |   |   |   avg_transaction_value >= 31949.1 : 0 (1/0)
|   |   |   |   |   |   |   |   |   |   complaint_status = Unsolved
|   |   |   |   |   |   |   |   |   |   |   internet_option = Wi-Fi : 1 (2/0)
|   |   |   |   |   |   |   |   |   |   |   internet_option = Mobile_Data : 1 (1/0)
|   |   |   |   |   |   |   |   |   |   |   internet_option = Fiber_Optic : 0 (1/0)
|   |   |   |   |   |   |   |   |   |   complaint_status = Solved : 1 (3/0)
|   |   |   |   |   |   |   |   |   |   complaint_status = Solved in Follow-up : 1 (1/0)
|   |   |   |   |   |   |   |   |   |   complaint_status = No Information Available : 0 (0/0)
|   |   |   |   |   |   |   |   |   feedback = Quality Customer Care : 0 (0/0)
|   |   |   |   |   |   |   |   |   feedback = Poor Customer Service : 1 (17/0)
|   |   |   |   |   |   |   |   |   feedback = No reason specified
|   |   |   |   |   |   |   |   |   |   days_since_last_login < 20.5
|   |   |   |   |   |   |   |   |   |   |   complaint_status = Not Applicable
|   |   |   |   |   |   |   |   |   |   |   |   points_in_wallet < 635.46 : 0 (1/0)
|   |   |   |   |   |   |   |   |   |   |   |   points_in_wallet >= 635.46 : 1 (2/0)
|   |   |   |   |   |   |   |   |   |   |   complaint_status = Unsolved : 0 (1/0)
|   |   |   |   |   |   |   |   |   |   |   complaint_status = Solved : 1 (1/0)
|   |   |   |   |   |   |   |   |   |   |   complaint_status = Solved in Follow-up : 1 (1/0)
|   |   |   |   |   |   |   |   |   |   |   complaint_status = No Information Available
|   |   |   |   |   |   |   |   |   |   |   |   avg_transaction_value < 18361.57 : 0 (1/0)
|   |   |   |   |   |   |   |   |   |   |   |   avg_transaction_value >= 18361.57 : 1 (1/0)
|   |   |   |   |   |   |   |   |   |   days_since_last_login >= 20.5 : 1 (18/0)
|   |   |   |   |   |   |   |   |   feedback = User Friendly Website : 0 (0/0)
|   |   |   |   |   |   |   |   |   feedback = Poor Product Quality
|   |   |   |   |   |   |   |   |   |   avg_transaction_value < 29515.94 : 1 (9/0)
|   |   |   |   |   |   |   |   |   |   avg_transaction_value >= 29515.94
|   |   |   |   |   |   |   |   |   |   |   region_category = City : 1 (1/0)
|   |   |   |   |   |   |   |   |   |   |   region_category = Village : 1 (1/0)
|   |   |   |   |   |   |   |   |   |   |   region_category = Town : 0 (1/0)
|   |   |   |   |   |   |   |   |   feedback = Products always in Stock : 0 (0/0)
|   |   |   |   |   |   |   |   |   feedback = Reasonable Price : 0 (0/0)
|   |   |   |   |   |   |   |   days_since_last_login >= 23.5 : 1 (14/0)
|   |   |   |   |   medium_of_operation = Desktop
|   |   |   |   |   |   past_complaint = No
|   |   |   |   |   |   |   points_in_wallet < 699.68
|   |   |   |   |   |   |   |   feedback = Poor Website
|   |   |   |   |   |   |   |   |   preferred_offer_types = Gift Vouchers/Coupons : 1 (33/0)
|   |   |   |   |   |   |   |   |   preferred_offer_types = Without Offers
|   |   |   |   |   |   |   |   |   |   internet_option = Wi-Fi : 1 (4/0)
|   |   |   |   |   |   |   |   |   |   internet_option = Mobile_Data
|   |   |   |   |   |   |   |   |   |   |   avg_transaction_value < 36924.33 : 1 (5/0)
|   |   |   |   |   |   |   |   |   |   |   avg_transaction_value >= 36924.33
|   |   |   |   |   |   |   |   |   |   |   |   avg_transaction_value < 39765.21 : 0 (1/0)
|   |   |   |   |   |   |   |   |   |   |   |   avg_transaction_value >= 39765.21 : 1 (3/0)
|   |   |   |   |   |   |   |   |   |   internet_option = Fiber_Optic : 1 (10/0)
|   |   |   |   |   |   |   |   |   preferred_offer_types = Credit/Debit Card Offers : 1 (15/0)
|   |   |   |   |   |   |   |   feedback = Too many ads
|   |   |   |   |   |   |   |   |   internet_option = Wi-Fi
|   |   |   |   |   |   |   |   |   |   points_in_wallet < 558.75
|   |   |   |   |   |   |   |   |   |   |   points_in_wallet < 550.27 : 1 (3/0)
|   |   |   |   |   |   |   |   |   |   |   points_in_wallet >= 550.27 : 0 (1/0)
|   |   |   |   |   |   |   |   |   |   points_in_wallet >= 558.75 : 1 (23/0)
|   |   |   |   |   |   |   |   |   internet_option = Mobile_Data
|   |   |   |   |   |   |   |   |   |   preferred_offer_types = Gift Vouchers/Coupons : 1 (2/0)
|   |   |   |   |   |   |   |   |   |   preferred_offer_types = Without Offers
|   |   |   |   |   |   |   |   |   |   |   points_in_wallet < 576.38 : 0 (1/0)
|   |   |   |   |   |   |   |   |   |   |   points_in_wallet >= 576.38 : 1 (4/0)
|   |   |   |   |   |   |   |   |   |   preferred_offer_types = Credit/Debit Card Offers : 1 (5/0)
|   |   |   |   |   |   |   |   |   internet_option = Fiber_Optic : 1 (24/0)
|   |   |   |   |   |   |   |   feedback = Quality Customer Care : 0 (0/0)
|   |   |   |   |   |   |   |   feedback = Poor Customer Service : 1 (71/0)
|   |   |   |   |   |   |   |   feedback = No reason specified : 1 (81/0)
|   |   |   |   |   |   |   |   feedback = User Friendly Website : 0 (0/0)
|   |   |   |   |   |   |   |   feedback = Poor Product Quality : 1 (80/0)
|   |   |   |   |   |   |   |   feedback = Products always in Stock : 0 (0/0)
|   |   |   |   |   |   |   |   feedback = Reasonable Price : 0 (0/0)
|   |   |   |   |   |   |   points_in_wallet >= 699.68
|   |   |   |   |   |   |   |   offer_application_preference = No : 1 (2/0)
|   |   |   |   |   |   |   |   offer_application_preference = Yes : 0 (1/0)
|   |   |   |   |   |   past_complaint = Yes
|   |   |   |   |   |   |   gender = M
|   |   |   |   |   |   |   |   days_since_last_login < 17.5
|   |   |   |   |   |   |   |   |   feedback = Poor Website : 1 (30/0)
|   |   |   |   |   |   |   |   |   feedback = Too many ads
|   |   |   |   |   |   |   |   |   |   region_category = City : 1 (8/0)
|   |   |   |   |   |   |   |   |   |   region_category = Village : 1 (6/0)
|   |   |   |   |   |   |   |   |   |   region_category = Town
|   |   |   |   |   |   |   |   |   |   |   avg_transaction_value < 21940.4
|   |   |   |   |   |   |   |   |   |   |   |   complaint_status = Not Applicable : 0 (0/0)
|   |   |   |   |   |   |   |   |   |   |   |   complaint_status = Unsolved : 1 (1/0)
|   |   |   |   |   |   |   |   |   |   |   |   complaint_status = Solved : 0 (0/0)
|   |   |   |   |   |   |   |   |   |   |   |   complaint_status = Solved in Follow-up
|   |   |   |   |   |   |   |   |   |   |   |   |   points_in_wallet < 602.58 : 0 (1/0)
|   |   |   |   |   |   |   |   |   |   |   |   |   points_in_wallet >= 602.58 : 1 (1/0)
|   |   |   |   |   |   |   |   |   |   |   |   complaint_status = No Information Available : 1 (1/0)
|   |   |   |   |   |   |   |   |   |   |   avg_transaction_value >= 21940.4 : 1 (7/0)
|   |   |   |   |   |   |   |   |   feedback = Quality Customer Care : 0 (0/0)
|   |   |   |   |   |   |   |   |   feedback = Poor Customer Service
|   |   |   |   |   |   |   |   |   |   complaint_status = Not Applicable : 0 (0/0)
|   |   |   |   |   |   |   |   |   |   complaint_status = Unsolved : 1 (3/0)
|   |   |   |   |   |   |   |   |   |   complaint_status = Solved : 1 (9/0)
|   |   |   |   |   |   |   |   |   |   complaint_status = Solved in Follow-up
|   |   |   |   |   |   |   |   |   |   |   internet_option = Wi-Fi : 0 (1/0)
|   |   |   |   |   |   |   |   |   |   |   internet_option = Mobile_Data : 1 (3/0)
|   |   |   |   |   |   |   |   |   |   |   internet_option = Fiber_Optic
|   |   |   |   |   |   |   |   |   |   |   |   avg_transaction_value < 8779.14 : 0 (1/0)
|   |   |   |   |   |   |   |   |   |   |   |   avg_transaction_value >= 8779.14 : 1 (3/0)
|   |   |   |   |   |   |   |   |   |   complaint_status = No Information Available : 1 (7/0)
|   |   |   |   |   |   |   |   |   feedback = No reason specified
|   |   |   |   |   |   |   |   |   |   avg_transaction_value < 48170.25 : 1 (31/0)
|   |   |   |   |   |   |   |   |   |   avg_transaction_value >= 48170.25
|   |   |   |   |   |   |   |   |   |   |   internet_option = Wi-Fi : 1 (2/0)
|   |   |   |   |   |   |   |   |   |   |   internet_option = Mobile_Data
|   |   |   |   |   |   |   |   |   |   |   |   points_in_wallet < 625.26 : 0 (1/0)
|   |   |   |   |   |   |   |   |   |   |   |   points_in_wallet >= 625.26 : 1 (1/0)
|   |   |   |   |   |   |   |   |   |   |   internet_option = Fiber_Optic : 0 (1/0)
|   |   |   |   |   |   |   |   |   feedback = User Friendly Website : 0 (0/0)
|   |   |   |   |   |   |   |   |   feedback = Poor Product Quality
|   |   |   |   |   |   |   |   |   |   points_in_wallet < 562.12
|   |   |   |   |   |   |   |   |   |   |   complaint_status = Not Applicable : 0 (0/0)
|   |   |   |   |   |   |   |   |   |   |   complaint_status = Unsolved : 1 (2/0)
|   |   |   |   |   |   |   |   |   |   |   complaint_status = Solved : 0 (0/0)
|   |   |   |   |   |   |   |   |   |   |   complaint_status = Solved in Follow-up
|   |   |   |   |   |   |   |   |   |   |   |   avg_transaction_value < 30288.77 : 0 (1/0)
|   |   |   |   |   |   |   |   |   |   |   |   avg_transaction_value >= 30288.77 : 1 (2/0)
|   |   |   |   |   |   |   |   |   |   |   complaint_status = No Information Available : 0 (0/0)
|   |   |   |   |   |   |   |   |   |   points_in_wallet >= 562.12 : 1 (29/0)
|   |   |   |   |   |   |   |   |   feedback = Products always in Stock : 0 (0/0)
|   |   |   |   |   |   |   |   |   feedback = Reasonable Price : 0 (0/0)
|   |   |   |   |   |   |   |   days_since_last_login >= 17.5 : 1 (48/0)
|   |   |   |   |   |   |   gender = F
|   |   |   |   |   |   |   |   preferred_offer_types = Gift Vouchers/Coupons
|   |   |   |   |   |   |   |   |   feedback = Poor Website : 1 (10/0)
|   |   |   |   |   |   |   |   |   feedback = Too many ads
|   |   |   |   |   |   |   |   |   |   region_category = City : 1 (4/0)
|   |   |   |   |   |   |   |   |   |   region_category = Village : 1 (2/0)
|   |   |   |   |   |   |   |   |   |   region_category = Town
|   |   |   |   |   |   |   |   |   |   |   joined_through_referral = No : 1 (2/0)
|   |   |   |   |   |   |   |   |   |   |   joined_through_referral = Yes
|   |   |   |   |   |   |   |   |   |   |   |   points_in_wallet < 666.71
|   |   |   |   |   |   |   |   |   |   |   |   |   days_since_last_login < 17 : 0 (1/0)
|   |   |   |   |   |   |   |   |   |   |   |   |   days_since_last_login >= 17 : 1 (1/0)
|   |   |   |   |   |   |   |   |   |   |   |   points_in_wallet >= 666.71 : 1 (3/0)
|   |   |   |   |   |   |   |   |   feedback = Quality Customer Care : 0 (0/0)
|   |   |   |   |   |   |   |   |   feedback = Poor Customer Service : 1 (15/0)
|   |   |   |   |   |   |   |   |   feedback = No reason specified
|   |   |   |   |   |   |   |   |   |   region_category = City : 1 (5/0)
|   |   |   |   |   |   |   |   |   |   region_category = Village : 0 (1/0)
|   |   |   |   |   |   |   |   |   |   region_category = Town : 1 (3/0)
|   |   |   |   |   |   |   |   |   feedback = User Friendly Website : 0 (0/0)
|   |   |   |   |   |   |   |   |   feedback = Poor Product Quality
|   |   |   |   |   |   |   |   |   |   region_category = City : 1 (5/0)
|   |   |   |   |   |   |   |   |   |   region_category = Village
|   |   |   |   |   |   |   |   |   |   |   avg_transaction_value < 26325.07 : 1 (2/0)
|   |   |   |   |   |   |   |   |   |   |   avg_transaction_value >= 26325.07 : 0 (1/0)
|   |   |   |   |   |   |   |   |   |   region_category = Town : 1 (7/0)
|   |   |   |   |   |   |   |   |   feedback = Products always in Stock : 0 (0/0)
|   |   |   |   |   |   |   |   |   feedback = Reasonable Price : 0 (0/0)
|   |   |   |   |   |   |   |   preferred_offer_types = Without Offers : 1 (60/0)
|   |   |   |   |   |   |   |   preferred_offer_types = Credit/Debit Card Offers
|   |   |   |   |   |   |   |   |   days_since_last_login < 17.5
|   |   |   |   |   |   |   |   |   |   complaint_status = Not Applicable : 0 (0/0)
|   |   |   |   |   |   |   |   |   |   complaint_status = Unsolved
|   |   |   |   |   |   |   |   |   |   |   internet_option = Wi-Fi
|   |   |   |   |   |   |   |   |   |   |   |   joined_through_referral = No : 1 (1/0)
|   |   |   |   |   |   |   |   |   |   |   |   joined_through_referral = Yes
|   |   |   |   |   |   |   |   |   |   |   |   |   avg_transaction_value < 22159.81 : 1 (1/0)
|   |   |   |   |   |   |   |   |   |   |   |   |   avg_transaction_value >= 22159.81 : 0 (2/0)
|   |   |   |   |   |   |   |   |   |   |   internet_option = Mobile_Data : 1 (6/0)
|   |   |   |   |   |   |   |   |   |   |   internet_option = Fiber_Optic : 1 (4/0)
|   |   |   |   |   |   |   |   |   |   complaint_status = Solved : 1 (17/0)
|   |   |   |   |   |   |   |   |   |   complaint_status = Solved in Follow-up : 1 (10/0)
|   |   |   |   |   |   |   |   |   |   complaint_status = No Information Available : 1 (15/0)
|   |   |   |   |   |   |   |   |   days_since_last_login >= 17.5
|   |   |   |   |   |   |   |   |   |   points_in_wallet < 553.72 : 0 (1/0)
|   |   |   |   |   |   |   |   |   |   points_in_wallet >= 553.72
|   |   |   |   |   |   |   |   |   |   |   points_in_wallet < 619.09 : 1 (7/0)
|   |   |   |   |   |   |   |   |   |   |   points_in_wallet >= 619.09
|   |   |   |   |   |   |   |   |   |   |   |   points_in_wallet < 635.2 : 0 (1/0)
|   |   |   |   |   |   |   |   |   |   |   |   points_in_wallet >= 635.2
|   |   |   |   |   |   |   |   |   |   |   |   |   internet_option = Wi-Fi
|   |   |   |   |   |   |   |   |   |   |   |   |   |   feedback = Poor Website : 0 (1/0)
|   |   |   |   |   |   |   |   |   |   |   |   |   |   feedback = Too many ads : 0 (0/0)
|   |   |   |   |   |   |   |   |   |   |   |   |   |   feedback = Quality Customer Care : 0 (0/0)
|   |   |   |   |   |   |   |   |   |   |   |   |   |   feedback = Poor Customer Service : 0 (0/0)
|   |   |   |   |   |   |   |   |   |   |   |   |   |   feedback = No reason specified : 0 (0/0)
|   |   |   |   |   |   |   |   |   |   |   |   |   |   feedback = User Friendly Website : 0 (0/0)
|   |   |   |   |   |   |   |   |   |   |   |   |   |   feedback = Poor Product Quality : 1 (1/0)
|   |   |   |   |   |   |   |   |   |   |   |   |   |   feedback = Products always in Stock : 0 (0/0)
|   |   |   |   |   |   |   |   |   |   |   |   |   |   feedback = Reasonable Price : 0 (0/0)
|   |   |   |   |   |   |   |   |   |   |   |   |   internet_option = Mobile_Data : 1 (2/0)
|   |   |   |   |   |   |   |   |   |   |   |   |   internet_option = Fiber_Optic : 1 (1/0)
|   |   |   |   membership_category = Platinum Membership : 0 (6/0)
|   |   |   |   membership_category = Premium Membership : 0 (8/0)
|   |   |   |   membership_category = Basic Membership
|   |   |   |   |   complaint_status = Not Applicable
|   |   |   |   |   |   feedback = Poor Website
|   |   |   |   |   |   |   preferred_offer_types = Gift Vouchers/Coupons
|   |   |   |   |   |   |   |   points_in_wallet < 687.05 : 1 (48/0)
|   |   |   |   |   |   |   |   points_in_wallet >= 687.05
|   |   |   |   |   |   |   |   |   avg_transaction_value < 12167.05 : 0 (1/0)
|   |   |   |   |   |   |   |   |   avg_transaction_value >= 12167.05 : 1 (3/0)
|   |   |   |   |   |   |   preferred_offer_types = Without Offers
|   |   |   |   |   |   |   |   region_category = City : 1 (24/0)
|   |   |   |   |   |   |   |   region_category = Village
|   |   |   |   |   |   |   |   |   points_in_wallet < 646.83
|   |   |   |   |   |   |   |   |   |   internet_option = Wi-Fi : 1 (2/0)
|   |   |   |   |   |   |   |   |   |   internet_option = Mobile_Data
|   |   |   |   |   |   |   |   |   |   |   medium_of_operation = Both : 0 (0/0)
|   |   |   |   |   |   |   |   |   |   |   medium_of_operation = Smartphone : 1 (1/0)
|   |   |   |   |   |   |   |   |   |   |   medium_of_operation = Desktop : 0 (2/0)
|   |   |   |   |   |   |   |   |   |   internet_option = Fiber_Optic : 1 (1/0)
|   |   |   |   |   |   |   |   |   points_in_wallet >= 646.83 : 1 (2/0)
|   |   |   |   |   |   |   |   region_category = Town : 1 (25/0)
|   |   |   |   |   |   |   preferred_offer_types = Credit/Debit Card Offers
|   |   |   |   |   |   |   |   medium_of_operation = Both
|   |   |   |   |   |   |   |   |   internet_option = Wi-Fi : 1 (3/0)
|   |   |   |   |   |   |   |   |   internet_option = Mobile_Data : 0 (0/0)
|   |   |   |   |   |   |   |   |   internet_option = Fiber_Optic : 0 (2/0)
|   |   |   |   |   |   |   |   medium_of_operation = Smartphone
|   |   |   |   |   |   |   |   |   points_in_wallet < 694.32 : 1 (27/0)
|   |   |   |   |   |   |   |   |   points_in_wallet >= 694.32 : 0 (1/0)
|   |   |   |   |   |   |   |   medium_of_operation = Desktop
|   |   |   |   |   |   |   |   |   used_special_discount = Yes : 1 (12/0)
|   |   |   |   |   |   |   |   |   used_special_discount = No
|   |   |   |   |   |   |   |   |   |   gender = M
|   |   |   |   |   |   |   |   |   |   |   points_in_wallet < 647.24 : 1 (6/0)
|   |   |   |   |   |   |   |   |   |   |   points_in_wallet >= 647.24 : 0 (1/0)
|   |   |   |   |   |   |   |   |   |   gender = F
|   |   |   |   |   |   |   |   |   |   |   points_in_wallet < 616.99
|   |   |   |   |   |   |   |   |   |   |   |   avg_transaction_value < 38776.49 : 1 (1/0)
|   |   |   |   |   |   |   |   |   |   |   |   avg_transaction_value >= 38776.49 : 0 (2/0)
|   |   |   |   |   |   |   |   |   |   |   points_in_wallet >= 616.99 : 1 (3/0)
|   |   |   |   |   |   feedback = Too many ads
|   |   |   |   |   |   |   avg_transaction_value < 15544.8 : 1 (53/0)
|   |   |   |   |   |   |   avg_transaction_value >= 15544.8
|   |   |   |   |   |   |   |   medium_of_operation = Both
|   |   |   |   |   |   |   |   |   gender = M
|   |   |   |   |   |   |   |   |   |   days_since_last_login < 12.5
|   |   |   |   |   |   |   |   |   |   |   points_in_wallet < 597.54 : 0 (1/0)
|   |   |   |   |   |   |   |   |   |   |   points_in_wallet >= 597.54
|   |   |   |   |   |   |   |   |   |   |   |   avg_transaction_value < 34573.32 : 1 (2/0)
|   |   |   |   |   |   |   |   |   |   |   |   avg_transaction_value >= 34573.32 : 0 (1/0)
|   |   |   |   |   |   |   |   |   |   days_since_last_login >= 12.5 : 1 (4/0)
|   |   |   |   |   |   |   |   |   gender = F : 1 (3/0)
|   |   |   |   |   |   |   |   medium_of_operation = Smartphone
|   |   |   |   |   |   |   |   |   points_in_wallet < 661.19
|   |   |   |   |   |   |   |   |   |   used_special_discount = Yes
|   |   |   |   |   |   |   |   |   |   |   points_in_wallet < 574.38
|   |   |   |   |   |   |   |   |   |   |   |   region_category = City
|   |   |   |   |   |   |   |   |   |   |   |   |   offer_application_preference = No : 1 (2/0)
|   |   |   |   |   |   |   |   |   |   |   |   |   offer_application_preference = Yes : 0 (1/0)
|   |   |   |   |   |   |   |   |   |   |   |   region_category = Village : 0 (0/0)
|   |   |   |   |   |   |   |   |   |   |   |   region_category = Town : 1 (3/0)
|   |   |   |   |   |   |   |   |   |   |   points_in_wallet >= 574.38 : 1 (14/0)
|   |   |   |   |   |   |   |   |   |   used_special_discount = No
|   |   |   |   |   |   |   |   |   |   |   preferred_offer_types = Gift Vouchers/Coupons : 1 (4/0)
|   |   |   |   |   |   |   |   |   |   |   preferred_offer_types = Without Offers : 1 (4/0)
|   |   |   |   |   |   |   |   |   |   |   preferred_offer_types = Credit/Debit Card Offers
|   |   |   |   |   |   |   |   |   |   |   |   joined_through_referral = No
|   |   |   |   |   |   |   |   |   |   |   |   |   points_in_wallet < 656.44 : 1 (1/0)
|   |   |   |   |   |   |   |   |   |   |   |   |   points_in_wallet >= 656.44 : 0 (1/0)
|   |   |   |   |   |   |   |   |   |   |   |   joined_through_referral = Yes : 1 (3/0)
|   |   |   |   |   |   |   |   |   points_in_wallet >= 661.19 : 1 (17/0)
